layer,weight_index,shape,values
weight_0,0,"(115, 256)","[0.08193130791187286, -0.020256124436855316, 0.07282844930887222, -0.06575053930282593, 0.11785752326250076, -0.0618838407099247, 0.10097823292016983, -0.12064943462610245, -0.06946823745965958, -0.17734606564044952, -0.05894215404987335, -0.14478176832199097, 0.13263657689094543, 0.14776714146137238, -0.036589041352272034, -0.07220787554979324, 0.04019641503691673, -0.029783589765429497, -0.13905620574951172, 0.010790620930492878, 0.04390398785471916, -0.0012503673788160086, 0.08085861802101135, -0.055665429681539536, -0.042127370834350586, -0.17935220897197723, 0.005423120688647032, -0.03665488585829735, 0.058236297219991684, -0.03375278785824776, -0.14311441779136658, -0.07376351207494736, 0.07237671315670013, 0.13469383120536804, -0.053634412586688995, 0.0039321077056229115, -0.03502051532268524, -0.1174677163362503, -0.08920250833034515, 0.05155567079782486, -0.03801536187529564, -0.02490241453051567, 0.04700838401913643, -0.06066249683499336, -0.21367493271827698, -0.03723585978150368, -0.014736066572368145, 0.010146306827664375, 0.09578307718038559, 0.006689002737402916, 0.03131881356239319, -0.1821794956922531, 0.081424780189991, -0.13428477942943573, 0.14972445368766785, -0.08092144131660461, -0.053758129477500916, 0.03795531392097473, -0.015008372254669666, -0.04823052138090134, -0.015979617834091187, 0.033597432076931, -0.0445573516190052, 0.04830940067768097, -0.02619011141359806, 0.11306097358465195, 0.00931826326996088, -0.049034472554922104, 0.044567521661520004, -0.04399280250072479, -0.05936414375901222, -0.05884714424610138, 0.12275727838277817, 0.13361823558807373, 0.08245859295129776, 0.16758829355239868, -0.05129452049732208, 0.13622592389583588, 0.05599221587181091, -0.09045635163784027, 0.12690575420856476, -0.03305788338184357, -0.027259480208158493, 0.1136322021484375, 0.12521992623806, 0.15221433341503143, 0.08448506891727448, -0.12253516912460327, 0.03522149473428726, -0.0861748456954956, 0.01824336126446724, 0.032261088490486145, -0.07484780997037888, 0.01118475291877985, 0.09558405727148056, -0.14382463693618774, 0.03336844965815544, -0.07449668645858765, 0.12536896765232086, 0.08289577066898346, -0.049967601895332336, -0.051022209227085114, 0.0872989296913147, 0.14335045218467712, 0.028258202597498894, 0.07181430608034134, -0.047411832958459854, -0.00758734717965126, 0.06017788127064705, -0.03416875749826431, 0.07858024537563324, 0.013005170039832592, -0.08578186482191086, 0.03983982279896736, -0.02199210226535797, 0.04005514085292816, -0.18211397528648376, -0.14692999422550201, 0.14390169084072113, -0.1500210165977478, -0.07570353150367737, -0.011543507687747478, 0.024347200989723206, 0.02897152677178383, 0.09277867525815964, 0.18098679184913635, -0.05584344267845154, 0.004647390451282263, -0.1509099304676056, 0.05559977516531944, 0.06792245805263519, -0.07231210172176361, -0.05507875978946686, 0.09046919643878937, -0.10839434713125229, 0.12711209058761597, -0.04234783723950386, -0.13317188620567322, -0.15368661284446716, -0.07343684136867523, -0.09499901533126831, -0.007580509874969721, 0.05281800031661987, 0.13022039830684662, 0.10152372717857361, 0.11530423909425735, 0.09398066997528076, 0.1572684794664383, 0.011393236927688122, -0.06884150952100754, 0.11795102804899216, 0.037494588643312454, 0.03652895614504814, -0.07607255131006241, -0.01882050558924675, -0.07373952865600586, 0.14000266790390015, -0.01019990909844637, 0.09618318825960159, 0.05894242227077484, 0.14675413072109222, -0.16103225946426392, 0.01638931781053543, 0.0944584533572197, -0.026247667148709297, -0.05508550629019737, 0.15373964607715607, -0.05353621765971184, -0.10253061354160309, -0.16613827645778656, -0.07461191713809967, 0.0008153488161042333, 0.09648146480321884, -0.05731108412146568, -0.03361012041568756, -0.10655325651168823, -0.01397150568664074, -0.1362009048461914, -0.11516838520765305, -0.006451623514294624, 0.03585449233651161, -0.08774848282337189, -0.0471964068710804, -0.011867308989167213, 0.15994632244110107, 0.006686789449304342, -0.04509405419230461, -0.007424559444189072, 0.21486598253250122, -0.13834068179130554, -0.08220469206571579, -0.03006235882639885, 0.0797961875796318, -0.03724173083901405, 0.022328224033117294, 0.09681132435798645, 0.05404980108141899, 0.04057047516107559, 0.026175282895565033, 0.14158575236797333, -0.04203413054347038, 0.07282804697751999, -0.053668826818466187, 0.13411059975624084, -0.09696411341428757, -0.13433951139450073, 0.05645634979009628, 0.08537899702787399, 0.06200588494539261, -0.11736121773719788, -0.07350587099790573, 0.07614006847143173, -0.044754013419151306, 0.08388329297304153, 0.009321014396846294, -0.022131264209747314, 0.05291169509291649, 0.07208072394132614, -0.11115166544914246, -0.010198711417615414, 0.16177862882614136, -0.003503650426864624, -0.1548832654953003, -0.055986303836107254, 0.0733766034245491, 0.03713102266192436, -0.14364714920520782, 0.05224232003092766, -0.004686463158577681, 0.030257996171712875, 0.0621672049164772, 0.0022048389073461294, 0.08374673128128052, -0.07415174692869186, 0.13257718086242676, 0.09194198250770569, 0.20168420672416687, -0.062466856092214584, -0.10880182683467865, 0.08045053482055664, -0.20755624771118164, 0.07841404527425766, 0.05377589911222458, -0.11700162291526794, -0.01933738775551319, 0.14143884181976318, 0.05674676597118378, -0.04584627225995064, -0.002642713487148285, 0.010346971452236176, -0.159823939204216, -0.08145102113485336, 0.0031116639729589224, -0.05052996426820755, 0.1789909154176712, 0.04592498019337654, 0.07305987924337387, -0.08303004503250122, 0.1288883537054062, -0.0023962222039699554, 0.030230078846216202, 0.0818648636341095, -0.20169149339199066, -0.10800778120756149, 0.11855927109718323, -0.1252955198287964, 0.10749796777963638, -0.09212031215429306, 0.10011697560548782, 0.00018029383500106633, -0.15027961134910583, -0.08752304315567017, -0.07806932926177979, -0.09917187690734863, -0.08489660918712616, -0.16445942223072052, -0.07795067876577377, -0.13326005637645721, -0.18211282789707184, 0.11996999382972717, 0.059642817825078964, 0.036319322884082794, 0.0750090479850769, -0.10013100504875183, -0.04206285625696182, -0.10813536494970322, -0.1641586571931839, -0.11577626317739487, -0.06640446931123734, 0.13005810976028442, -0.08914836496114731, 0.022805651649832726, 0.05596129968762398, 0.012246563099324703, 0.032059650868177414, 0.005987442564219236, 0.08692146837711334, -0.20300982892513275, -0.0050853947177529335, 0.0925515741109848, -0.06348022073507309, 0.09031607210636139, 0.14874804019927979, -0.04189305007457733, -0.0774337649345398, 0.03379737585783005, 0.13224276900291443, -0.0644274353981018, 0.002906925044953823, 0.004691945388913155, 0.00901735108345747, -0.14380572736263275, 0.009314220398664474, -0.09716332703828812, -0.008528387174010277, 0.09945803135633469, 0.052175622433423996, 0.04925418645143509, -0.0637754276394844, 0.002989884465932846, 0.06407622992992401, 0.03742292895913124, -0.08680476248264313, -0.14270155131816864, 0.09559664130210876, 0.08142024278640747, -0.12774182856082916, -0.1241808608174324, -0.11051127314567566, -0.05394767224788666, -0.04638460651040077, 0.06559832394123077, 0.09894019365310669, 0.08613001555204391, -0.03749433532357216, -0.07861273735761642, -0.1888536810874939, 0.011146403849124908, -0.08486972004175186, -0.15679913759231567, 0.034833524376153946, 0.12323778122663498, 0.021917345002293587, -0.01849621906876564, -0.04325215145945549, -0.22328495979309082, 0.19779609143733978, 0.08601609617471695, 0.1310047209262848, 0.08697425574064255, 0.14431746304035187, -0.061687543988227844, -0.02956252545118332, 0.011928744614124298, -0.05335020273923874, 0.00602981261909008, 0.09887828677892685, -0.09641014039516449, -0.05142591893672943, 0.05641794577240944, -0.0709109678864479, 0.033487431704998016, -0.07045990973711014, -0.19036948680877686, -0.02081201784312725, -0.119804747402668, -0.11832020431756973, 0.07508984953165054, -0.03349795565009117, -0.08341967314481735, -0.1335054337978363, -0.08133339881896973, 0.011593525297939777, 0.06528186053037643, 0.031280167400836945, -0.05444679036736488, -0.02495197020471096, -0.04988619685173035, -0.12443636357784271, -0.10577385872602463, -0.16696423292160034, 0.08097811788320541, 0.02004927769303322, 0.04242836683988571, -0.04763972386717796, 0.02676534838974476, 0.016835128888487816, -0.07242365926504135, -0.010595126077532768, -0.05447520688176155, -0.07865241169929504, -0.0684523805975914, 0.06816140562295914, -0.008970113471150398, -0.18355971574783325, -0.04318947345018387, -0.06590331345796585, -0.023825034499168396, 0.1013135239481926, 0.11883725970983505, 0.13440297544002533, 0.16163048148155212, 0.05011691525578499, 0.09313612431287766, -0.052200596779584885, 0.038695257157087326, -0.07201077789068222, -0.062377993017435074, -0.022456321865320206, 0.012950018979609013, 0.04198366776108742, 0.11507166922092438, -0.08523567020893097, -0.12840281426906586, -0.024595316499471664, 0.022602923214435577, 0.02705347165465355, -0.05646272003650665, 0.14660358428955078, 0.07195204496383667, -0.012594370171427727, -0.08209774643182755, -0.1042381152510643, -0.07269652187824249, -0.16287429630756378, -0.028915386646986008, -0.07451701909303665, -0.08256799727678299, 0.10028906166553497, -0.06664508581161499, -0.04889928549528122, -0.1473936140537262, -0.02671179734170437, 0.03279828652739525, -0.006960262544453144, 0.004345711786299944, 0.1001620665192604, 0.047301340848207474, 0.07520798593759537, -0.1339876800775528, -0.11510606855154037, -0.12940393388271332, 0.11563166975975037, -0.06644511222839355, -0.022147998213768005, -0.016839465126395226, -0.038869354873895645, 0.1540106236934662, 0.0029350717086344957, 0.12803642451763153, -0.056172266602516174, -0.06667793542146683, -0.06487634778022766, -0.010025001130998135, 0.017236076295375824, -0.0014958863612264395, -0.08435279875993729, -0.13461582362651825, -0.04661186784505844, -0.06446337699890137, 0.12644043564796448, -0.18261732161045074, -0.059538617730140686, 0.02423139661550522, 0.09553253650665283, -0.07646045088768005, 0.04749501496553421, -0.01451905257999897, 0.055465005338191986, -0.15028226375579834, -0.08568409085273743, 0.11161240190267563, 0.09223999828100204, 0.13933740556240082, 0.009021061472594738, 0.11020950227975845, -0.0033004148863255978, -0.005671714432537556, -0.09364049881696701, 0.0826222226023674, 0.1271613985300064, -0.0782918632030487, -0.0713280588388443, 0.08881080150604248, 0.008858065120875835, -0.13617071509361267, 0.04530205950140953, -0.02231229655444622, 0.053813181817531586, 0.1236412301659584, -0.09529002755880356, 0.09998662024736404, -0.029376862570643425, -0.06119975075125694, 0.09406772255897522, 0.023487744852900505, -0.06730471551418304, -0.1734485775232315, -0.09012961387634277, -0.11377156525850296, -0.03216533362865448, 0.0628051832318306, -0.14972981810569763, 0.04098626226186752, -0.03980676084756851, 0.07096752524375916, -0.15785542130470276, -0.0625210851430893, 0.014728929847478867, -0.0708298608660698, -0.1256401091814041, -0.06938411295413971, -0.10722699761390686, 0.1022147461771965, 0.07615622133016586, -0.04582453519105911, 0.08991146087646484, -0.11509431153535843, 0.027269819751381874, -0.08974860608577728, -0.0050146616995334625, 0.050994593650102615, -0.12068793922662735, 0.09268122911453247, 0.08652401715517044, 0.07878663390874863, -0.06113540753722191, -0.047719091176986694, 0.08096535503864288, -0.12754230201244354, -0.016686713322997093, 0.04267626255750656, 0.08257146924734116, -0.027867309749126434, -0.10133380442857742, -0.009571352042257786, -0.07712537795305252, -0.12876707315444946, 0.03531279042363167, 0.0712248757481575, 0.10479366034269333, 0.07663893699645996, -0.13295002281665802, 0.10323753952980042, -0.04620523378252983, -0.10577009618282318, 0.06853951513767242, 0.1202034056186676, -0.03872724249958992, -0.03851045295596123, 0.09854404628276825, -0.10063812881708145, -0.07890806347131729, 0.05439705774188042, -0.07132348418235779, 0.09145671874284744, 0.06315583735704422, 0.11839327216148376, -0.06835134327411652, 0.02085728384554386, -0.11243388056755066, -0.050987839698791504, 0.10344743728637695, -0.0019624351989477873, 0.08341506868600845, 0.009290504269301891, 0.030923884361982346, 0.08130165934562683, 0.05071215704083443, 0.02807495929300785, 0.018575094640254974, 0.09284143149852753, -0.0004439052427187562, -0.02413315698504448, 0.08336899429559708, -0.04528656229376793, 0.014644523151218891, -0.018583308905363083, -0.07522904127836227, -0.17068883776664734, 0.014068623073399067, -0.03731975704431534, 0.09702466428279877, 0.02280067466199398, 0.08029021322727203, -0.029197242110967636, -0.0589141882956028, -0.16878336668014526, -0.04496395215392113, -0.05413387715816498, -0.04164562746882439, -0.09322510659694672, -0.015007326379418373, 0.10865681618452072, 0.03766002506017685, -0.07045065611600876, 0.07903721183538437, 0.03995981439948082, 0.009266043081879616, -0.05439554154872894, -0.12607836723327637, -0.2014089673757553, 0.13491208851337433, -0.18086211383342743, -0.1536703109741211, 0.06701330840587616, 0.041231486946344376, 0.03661353141069412, 0.028721516951918602, -0.0433129221200943, 0.018694179132580757, -0.05021771416068077, -0.020383814349770546, -0.09525199234485626, 0.10632797330617905, 0.13107013702392578, -0.0980738177895546, -0.043104201555252075, 0.053572069853544235, 0.008529197424650192, -0.1560678482055664, -0.0009485312621109188, -0.04389449954032898, -0.012186672538518906, 0.017914574593305588, -0.11675628274679184, 0.01630380004644394, -0.11631978303194046, -0.00046793039655312896, 0.11487755179405212, 0.0217131320387125, -0.0170474611222744, -0.03735407069325447, 0.12386493384838104, 0.09730459749698639, 0.005024285521358252, -0.19069519639015198, 0.08304109424352646, -0.020334433764219284, -0.0040897829458117485, 0.0857250913977623, 0.09653302282094955, 0.04021717607975006, -0.017769549041986465, -0.08612022548913956, -0.03327412158250809, 0.04560062289237976, 0.09385243058204651, 0.02553696557879448, -0.006800475530326366, -0.03546744957566261, 0.09456901997327805, -0.14054834842681885, 0.005492521915584803, 0.06154806166887283, -0.10086093842983246, -0.08583266288042068, -0.02527329884469509, -0.042003776878118515, -0.005553646944463253, -0.18164272606372833, 0.06818833947181702, 0.011950192041695118, -0.014863458462059498, 0.07631616294384003, -0.06374717503786087, -0.014014382846653461, 0.025341656059026718, -0.04247080162167549, -0.09939099103212357, -0.14218397438526154, -0.007466420065611601, -0.03159944340586662, 0.11256261169910431, -0.07418797165155411, 0.032636117190122604, 0.05475827679038048, -0.1240701749920845, 0.041699446737766266, -0.1613301783800125, -0.026007790118455887, -0.16257327795028687, 0.03527975454926491, 0.1401827037334442, 0.007332191802561283, -0.13896431028842926, -0.01566103845834732, -0.13588544726371765, 0.0653255358338356, 0.07433753460645676, 0.05752351135015488, 0.017395969480276108, -0.06556523591279984, 0.01178851630538702, -0.11391647160053253, 0.12397608906030655, 0.007554410491138697, -0.11483810096979141, 0.002510111080482602, -0.108193039894104, -0.06560377776622772, -0.03502877056598663, -0.030309928581118584, 0.10482913255691528, 0.11343422532081604, 0.12974803149700165, 0.11415047943592072, -0.07691901177167892, -0.05266500264406204, -0.0731191635131836, 0.009847220033407211, 0.09353533387184143, 0.06922657042741776, 0.06154799833893776, 0.10846727341413498, 0.043990712612867355, 0.18216486275196075, -0.002388105960562825, -0.13305123150348663, -0.0665198415517807, -0.05032683536410332, -0.20699754357337952, 0.08198478072881699, -0.04767443984746933, -0.15045328438282013, -0.1219264417886734, -0.06327363848686218, -0.06809456646442413, 0.10592228919267654, -0.05557689815759659, -0.15890318155288696, 0.03902403265237808, 0.07388947904109955, 0.03095346875488758, 0.04472487419843674, -0.10157901793718338, 0.0524468794465065, 0.11623603850603104, -0.07152463495731354, 0.06929975748062134, 0.013822613283991814, 0.0450720340013504, 0.004765835590660572, 0.04774804040789604, -0.013791168108582497, 0.11443126201629639, 0.020801590755581856, -0.061658039689064026, -0.07766426354646683, 0.07879830151796341, 0.017612284049391747, -0.05097770318388939, -0.027459636330604553, -0.11463730037212372, -0.06820303946733475, -0.019549448043107986, -0.019678594544529915, -0.03586999326944351, -0.07624544948339462, 0.07414793968200684, 0.06437762081623077, -0.013484583236277103, -0.17415641248226166, -0.08612998574972153, -0.09842551499605179, 0.05018407478928566, -0.03842831030488014, -0.01354427170008421, -0.09773342311382294, -0.19443078339099884, 0.16551367938518524, 0.06498810648918152, 0.08020767569541931, 0.1767410933971405, 0.01982475444674492, -0.1086094006896019, -0.12840092182159424, -0.004806087352335453, -0.14210286736488342, -0.17282375693321228, -0.022428426891565323, -0.18402066826820374, 0.019959570840001106, -0.013594677671790123, 0.08328858017921448, -0.1356607973575592, -0.0007497825426980853, -0.00895736739039421, 0.003746613161638379, 0.038117073476314545, 0.00844142772257328, 0.01660347729921341, 0.004363562911748886, -0.024597661569714546, 0.01524818129837513, -0.044665541499853134, 0.11638541519641876, 0.06736449897289276, 0.07734662294387817, 0.07236002385616302, -0.10738425701856613, -0.10415828973054886, 0.09438618272542953, -0.03850412368774414, -0.01149854063987732, -0.0748334750533104, 0.12515512108802795, 0.07886969298124313, 0.09170717000961304, 0.05901278927922249, -0.08856136351823807, 0.09992530196905136, 0.11996150016784668, 0.04068846255540848, 0.10419625788927078, 0.022170495241880417, -0.01263808086514473, 0.004869475029408932, -0.0645376518368721, -0.07630420476198196, 0.16152751445770264, 0.05713919550180435, -0.02991510182619095, -0.06145622208714485, 0.11017995327711105, 0.01595739647746086, -0.049381762742996216, 0.0067612528800964355, -0.06466376036405563, 0.06134320795536041, 0.04351396858692169, 0.09797517955303192, -0.07115011662244797, -0.0009716335334815085, -0.06450957804918289, -0.0624254085123539, 0.006941092666238546, -0.05104280263185501, -0.06890764087438583, 0.09700360894203186, 0.04644140973687172, -0.041803643107414246, 0.047152940183877945, 0.06220712885260582, -0.0671754851937294, 0.06089242547750473, -0.04363398253917694, -0.05888138711452484, -0.011281449347734451, -0.026536811143159866, 0.08412867784500122, 0.06219610199332237, -0.09219180792570114, -0.027878288179636, 0.07067906856536865, -0.09392772614955902, 0.03567580133676529, -0.001094052684493363, -0.02407201938331127, -0.11545369774103165, 0.06753963232040405, 0.09460953623056412, 0.13198933005332947, 0.050144392997026443, 0.10820036381483078, 0.0034593904856592417, 0.11292781680822372, -0.057898495346307755, 0.07558531314134598, 0.07787653803825378, -0.011671316809952259, 0.057970646768808365, -0.012290812097489834, 0.2000235766172409, -0.0716090127825737, -0.005050329025834799, 0.03211792930960655, -0.00021725425904151052, 0.021778607740998268, -0.009603031910955906, 0.14837463200092316, 0.05646047741174698, -0.18576595187187195, 0.04508117586374283, -0.1393679529428482, 0.06690903007984161, 0.062001146376132965, -0.094511479139328, 0.06283746659755707, 0.06894917041063309, 0.021320128813385963, -0.0498930886387825, 0.0005614275578409433, -0.004645294975489378, -0.11836998909711838, -0.10664953291416168, -0.06231207773089409, 0.06457351893186569, 0.04066302627325058, -0.07779799401760101, -0.053649965673685074, -0.026885155588388443, -0.05621086433529854, 0.059100501239299774, 0.1628495454788208, -0.026095028966665268, 0.026002125814557076, -0.09152244031429291, -0.051382217556238174, -0.17549484968185425, -0.013501875102519989, -0.10487779974937439, -0.03967554122209549, 0.08620408177375793, -0.11503573507070541, 0.00025323237059637904, -0.18604589998722076, -0.15075817704200745, 0.0836290717124939, 0.10198227316141129, 0.06579244136810303, 0.10738259553909302, 0.16081272065639496, -0.022014839574694633, 0.03799121826887131, -0.10619539022445679, -0.09100440889596939, -0.08734387904405594, 0.010382195003330708, -0.11112168431282043, 0.14289583265781403, -0.11722077429294586, -0.06113126501441002, -0.08667755872011185, -0.03846827149391174, -0.00579071044921875, 0.006585627794265747, -0.16267409920692444, 0.02201889269053936, -0.11188428103923798, -0.011614521034061909, 0.007574041839689016, -0.1571708619594574, 0.07987742871046066, 0.10444150120019913, 0.015417664311826229, 0.024928947910666466, -0.09549953043460846, 0.07893369346857071, -0.07448851317167282, -0.007076079025864601, 0.035550232976675034, -0.14021453261375427, 0.026044223457574844, -0.19200018048286438, -0.18348149955272675, -0.0616648904979229, 0.18714845180511475, -0.06058838218450546, 0.1279980093240738, -0.07072765380144119, -0.04246219992637634, 0.14293605089187622, 0.05744647979736328, 0.020914621651172638, 0.16197745501995087, -0.05717805027961731, -0.062839575111866, 0.06648368388414383, -0.08869681507349014, -0.0819081962108612, -0.010571181774139404, -0.04011073336005211, 0.013398793525993824, 0.03397069126367569, 0.10178521275520325, 0.1299719363451004, -0.09281562268733978, -0.06132950633764267, -0.026837438344955444, -0.04084252938628197, 0.055577296763658524, 0.12398920953273773, -0.10005594789981842, -0.04652858525514603, -0.10761523991823196, 0.11465836316347122, -0.04180559143424034, -0.01608918234705925, -0.11199598014354706, 0.10506648570299149, -0.03313964977860451, -0.08223991096019745, -0.11991463601589203, -0.100581593811512, 0.10486524552106857, -0.05712540075182915, -0.06437593698501587, -0.012767238542437553, 0.14518560469150543, 0.003940231166779995, -0.06546895951032639, -0.10617274045944214, 0.10869511216878891, 0.03399044647812843, -0.06492650508880615, 0.07532484084367752, 0.0603460967540741, 0.04324452206492424, -0.002776537323370576, -0.04084634408354759, 0.14340172708034515, 0.030755318701267242, 0.14629366993904114, -0.022067684680223465, -0.07364742457866669, 0.08873966336250305, -0.0907570868730545, -0.04844984412193298, 0.09648382663726807, -0.006945890374481678, -0.11835820227861404, -0.10291330516338348, -0.13807722926139832, -0.03363066166639328, 0.09302053600549698, -0.03223981335759163, -0.052467405796051025, 0.007326051592826843, -0.01662096381187439, -0.08622415363788605, -0.13467898964881897, 0.06753745675086975, -0.08924669772386551, -0.07118462026119232, 0.007502082269638777, 0.10327735543251038, -0.13774946331977844, -0.18244515359401703, -0.03688139468431473, 0.00528080016374588, 0.014009390957653522, -0.10101371258497238, 0.13299280405044556, -0.009279194287955761, 0.08727966248989105, -0.05459035187959671, 0.025511503219604492, -0.06998341530561447, -0.03746785968542099, -0.1013641208410263, 0.0449984185397625, -0.07407167553901672, 0.07401004433631897, -0.014143175445497036, 0.06937078386545181, 0.0773509293794632, -0.02496570721268654, 0.06467806547880173, 0.02106834016740322, -0.13408130407333374, 0.033038754016160965, 0.08403832465410233, 0.07212094962596893, -0.09553775191307068, -0.026545623317360878, -0.03329004347324371, 0.20042523741722107, 0.10772126168012619, -0.03395894169807434, 0.07469876855611801, -0.04250727593898773, -0.05367673933506012, -0.13515789806842804, -0.015866847708821297, 0.1126147136092186, 0.07931343466043472, 0.09865216165781021, 0.06851737946271896, -0.07243029773235321, -0.060838568955659866, 0.16487544775009155, -0.00914502888917923, -0.020349659025669098, 0.008612853474915028, 0.05887651816010475, -0.0004998304066248238, 0.10500365495681763, 0.053127460181713104, -0.14205928146839142, -0.0357227548956871, 0.049726277589797974, -0.0929609090089798, 0.006179253105074167, 0.1892816722393036, 0.06766127794981003, 0.08621015399694443, -0.12793397903442383, -0.012815801426768303, -0.025471987202763557, -0.00865270011126995, -0.12055366486310959, -0.1725929081439972, 0.025952128693461418, -0.20262116193771362, -0.12086085975170135, 0.0690598338842392, 0.11463028937578201, -0.0034923639614135027, -0.04202033206820488, -0.0400872640311718, -0.13765378296375275, -0.12376870959997177, -0.05771918222308159, 0.07562405616044998, -0.0781392976641655, -0.17966912686824799, 0.09356856346130371, 0.15325237810611725, -0.06610077619552612, 0.0381171777844429, -0.04615965113043785, 0.17619462311267853, 0.14326508343219757, 0.1160556823015213, 0.11785471439361572, -0.011691655963659286, 0.10715243965387344, -0.004997486248612404, -0.06143819913268089, -0.08526501059532166, 0.06316029280424118, -0.011769534088671207, 0.01586507260799408, 0.05749890208244324, -0.001167526701465249, -0.0338907316327095, -0.042928408831357956, -0.10542166978120804, -0.12840278446674347, -0.16733495891094208, 0.06696098297834396, -0.014564597979187965, -0.1300773024559021, -0.05366156995296478, 0.10350778698921204, -0.08228132873773575, 0.0474359504878521, -0.07910611480474472, 0.127393439412117, 0.0454564206302166, 0.11840347200632095, -0.0931718498468399, 0.011979678645730019, -0.05274660512804985, 0.1087389811873436, 0.015623902902007103, -0.005129752214998007, -0.1291235387325287, 0.12375707179307938, 0.01057874970138073, -0.10724733024835587, -0.16386805474758148, 0.16338731348514557, -0.005114783998578787, -0.0658419206738472, 0.08462843298912048, -0.08087760955095291, 0.15111617743968964, -0.09258244186639786, -0.13534535467624664, 0.005218541249632835, 0.036018770188093185, 0.0726073682308197, 0.05284176021814346, 0.031199991703033447, 0.05927874147891998, -0.051446348428726196, 0.09868838638067245, 0.12244796752929688, -0.019712647423148155, -0.10849478840827942, 0.022094344720244408, 0.0368444100022316, -0.1308635026216507, -0.07894663512706757, -0.07811112701892853, 0.10587580502033234, 0.1109638586640358, 0.010009102523326874, 0.1480061560869217, -0.08325004577636719, 0.0517515130341053, 0.11164585500955582, 0.0767068937420845, -0.04496227204799652, -0.03369840979576111, -0.1136358305811882, -0.03029721789062023, 0.09697914868593216, 0.08529002964496613, 0.09396200627088547, -0.09688744693994522, 0.08587029576301575, 0.01506173238158226, 0.12268534302711487, -0.11958771198987961, 0.09041173756122589, 0.12706485390663147, 0.027957601472735405, -0.048228174448013306, -0.022623222321271896, 0.14984646439552307, -0.02724124863743782, -0.043210506439208984, 0.08161219954490662, -0.04327115789055824, 0.02200513333082199, 0.053760021924972534, -0.0997234657406807, 0.050414878875017166, 0.07324320822954178, -0.026577692478895187, -0.0931447222828865, 0.08329568058252335, -0.14867445826530457, -0.10020440816879272, 0.0509168803691864, -0.060644254088401794, -0.10208316147327423, -0.04888341575860977, 0.06571798026561737, -0.09671279042959213, -0.06952707469463348, 0.048955000936985016, -0.1194516271352768, 0.0508028082549572, -0.1459657847881317, -0.16642731428146362, -0.1497977077960968, 0.028312671929597855, -0.007369913626462221, 0.024280576035380363, 0.15489408373832703, -0.06278084963560104, -0.11002537608146667, 0.049651578068733215, -0.11172791570425034, 0.15023252367973328, -0.08778343349695206, -0.0382981039583683, -0.043192725628614426, -0.16172195971012115, -0.08761333674192429, 0.025248872116208076, -0.007204488851130009, 0.019674960523843765, -0.029598848894238472, -0.15674811601638794, -0.010768510401248932, 0.21968315541744232, -0.09154335409402847, 0.10756509751081467, 0.07833864539861679, -0.04795816168189049, 0.03139623627066612, -0.21426069736480713, 0.1752358376979828, -0.11883077025413513, 0.05049687251448631, 0.06938979029655457, -0.05438170209527016, 0.0554736889898777, 0.07236295193433762, -0.0806860625743866, -0.06275063753128052, -0.1887960433959961, 0.031157711520791054, -0.11467648297548294, 0.057797204703092575, 0.1468334048986435, 0.09823378920555115, 0.17681270837783813, 0.0355970561504364, 0.133327916264534, 0.04339873418211937, 0.02363000623881817, -0.11537500470876694, -0.03211326524615288, -0.08657772839069366, -0.1423375904560089, -0.009787878021597862, -0.1106245294213295, 0.03505812957882881, -0.1905401647090912, 0.02919549122452736, 0.07009721547365189, -0.028734305873513222, -0.08544030040502548, 0.08716000616550446, 0.08530359715223312, -0.14943701028823853, -0.044566672295331955, -0.16456541419029236, 0.04740728810429573, 0.21636465191841125, -0.0031513990834355354, 0.11622392386198044, 0.09035998582839966, 0.0408080630004406, -0.042050424963235855, -0.025480078533291817, -0.024273747578263283, 0.02440660260617733, 0.10450652986764908, 0.05151384696364403, 0.1333737075328827, -0.05447974428534508, -0.11063110828399658, -0.030121559277176857, -0.08882729709148407, 0.15467047691345215, -0.038025062531232834, -0.08442015200853348, -0.09004993736743927, -0.07027848064899445, 0.06658347696065903, -0.043675027787685394, 0.08881258964538574, -0.023868178948760033, 0.011854717507958412, -0.03942924365401268, 0.04852116480469704, -0.04379162937402725, -0.06956245005130768, -0.06995391100645065, -0.010255085304379463, -0.06347343325614929, 0.041521959006786346, -0.09024130553007126, 0.036513809114694595, 0.01485271193087101, -0.05893231928348541, -0.07150792330503464, 0.030124684795737267, 0.02534523978829384, -0.03785375878214836, -0.10781543701887131, 0.03547854721546173, -0.09248863160610199, 0.09782864153385162, 0.13887745141983032, -0.04524214565753937, -0.1417119950056076, -0.0584443062543869, -0.0974288284778595, 0.029075350612401962, 0.01683795265853405, -0.07226729393005371, 0.12952835857868195, -0.0945919007062912, 0.13441698253154755, -0.08781735599040985, -0.02016754262149334, 0.06446165591478348, -0.015844525769352913, -0.0347929485142231, -0.0011232336983084679, -0.06740666180849075, -0.028663359582424164, -0.0774168074131012, 0.1237821877002716, -0.0825795829296112, 0.08972923457622528, 0.046544622629880905, -0.12958255410194397, 0.059583600610494614, -0.01481475867331028, -0.07343381643295288, -0.05400914326310158, -0.016673481091856956, -0.04559480771422386, -0.022250661626458168, 0.03952489048242569, -0.13667769730091095, 0.039528075605630875, -0.02249286137521267, -0.002264702459797263, 0.040781598538160324, -0.1301833540201187, 0.048407796770334244, 0.020398283377289772, -0.0699009895324707, 0.01325709093362093, -0.12392100691795349, -0.08897076547145844, -0.09964924305677414, -0.11925511807203293, 0.11313854157924652, -0.15505903959274292, 0.12315395474433899, 0.033844344317913055, 0.06988953799009323, 0.04205818101763725, -0.06612519919872284, 0.13249711692333221, -0.0010188898304477334, 0.03434399142861366, -0.0037324971053749323, -0.03769763186573982, 0.10151781886816025, -0.021405965089797974, -0.01098140049725771, 0.06597982347011566, -0.06070311740040779, -0.0756559818983078, 0.10457231104373932, 0.11147527396678925, 0.03199218586087227, -0.030116021633148193, 0.12819714844226837, -0.013779421336948872, -0.10278283059597015, -0.05073510855436325, 0.08913207799196243, 0.06929195672273636, -0.0030880775302648544, -0.013281750492751598, -0.02720409445464611, -0.07393177598714828, -0.05527930706739426, 0.05036941170692444, -0.15022654831409454, -0.04919949173927307, 0.07600357383489609, 0.008044257760047913, 0.02195212058722973, 0.05604318529367447, 0.08742918819189072, -0.029003247618675232, -0.1051144003868103, -0.08237915486097336, 0.1652228981256485, 0.07896210253238678, -0.012669921852648258, 0.05293378606438637, -0.004655493889003992, 0.07437985390424728, 0.059392549097537994, 0.08968841284513474, -0.054573528468608856, -0.046557437628507614, 0.04176822677254677, 0.0881480723619461, 0.013642504811286926, 0.1188005581498146, -0.04877524822950363, -0.013884978368878365, 0.07418885827064514, 0.09563637524843216, 0.09218889474868774, 0.11587260663509369, 0.11577857285737991, 0.009519260376691818, 0.021922778338193893, -0.008204815909266472, 0.016980784013867378, 0.12352102994918823, -0.04707447439432144, 0.0720909982919693, 0.09574555605649948, -0.0513167530298233, -0.08240627497434616, -0.09110453724861145, -0.16898345947265625, -0.01674811728298664, 0.1196848675608635, 0.12363877147436142, -0.14556871354579926, 0.05551359802484512, -0.08764355629682541, 0.051382631063461304, -0.06592188775539398, -0.04002835974097252, 0.13431808352470398, 0.012047751806676388, 0.06555155664682388, 0.008124183863401413, 0.013004610314965248, 0.1008833721280098, 0.06563351303339005, 0.06292843073606491, 0.15059992671012878, -0.008076672442257404, -0.16024260222911835, -0.10940913110971451, 0.01866316609084606, 0.09169559180736542, 0.07717428356409073, -0.037200696766376495, -0.19780948758125305, 0.15180522203445435, 0.029994411394000053, 0.010543948970735073, -0.06721027195453644, -0.017521411180496216, 0.08840402960777283, 0.03226146101951599, 0.02931753732264042, -0.01963110826909542, 0.06345999985933304, -0.03294653072953224, 0.06466110050678253, -0.1607270985841751, 0.02809399738907814, -0.004649504087865353, -0.09712986648082733, 0.083686463534832, -0.11714275181293488, 0.10667485743761063, -0.011442530900239944, 0.013003388419747353, -0.08738932758569717, -0.07183969020843506, 0.10672377049922943, 0.17963643372058868, 0.05571841076016426, 0.1582939624786377, -0.0052415733225643635, -0.08476033806800842, -0.10602667182683945, -0.08625978976488113, -0.0945257619023323, 0.12066479027271271, 0.09845840930938721, -0.10826978087425232, -0.0979887992143631, 0.1582115888595581, 0.07980886101722717, -0.020517682656645775, 0.13828763365745544, -0.04905501380562782, 0.009989696554839611, 0.061932358890771866, -0.1173170879483223, -0.15354996919631958, -0.22722335159778595, 0.14908447861671448, -0.09103815257549286, -0.09361597895622253, 0.01750347577035427, 0.14237938821315765, -0.009197171777486801, 0.14532344043254852, -0.07358164340257645, 0.041091471910476685, -0.08511702716350555, -0.19936415553092957, -0.16025838255882263, -0.05273181572556496, -0.026937231421470642, -0.07404705882072449, -0.06336603313684464, 0.0699235126376152, -0.13000838458538055, -0.07779558002948761, -0.07115187495946884, -0.05005273595452309, 0.032419703900814056, 0.038301415741443634, 0.053036659955978394, 0.03426499292254448, -0.13285459578037262, -0.08788225054740906, 0.062423013150691986, 0.03976167365908623, -0.07537444680929184, 0.07890578359365463, 0.08030123263597488, 0.10873127728700638, -0.15515846014022827, -0.047885265201330185, -0.08920039236545563, 0.005339902825653553, 0.03958405554294586, 0.023191681131720543, 0.07261092960834503, -0.1170123964548111, -0.07684797048568726, 0.09334375709295273, -0.131993368268013, 0.17638351023197174, 0.03258282318711281, -0.0045091561041772366, -0.07611642777919769, 0.04778974503278732, 0.040065404027700424, -0.17470388114452362, 0.013982398435473442, -0.21044114232063293, -0.055682383477687836, 0.13875338435173035, 0.10284126549959183, 0.07187002897262573, 0.09545936435461044, 0.1921561360359192, -0.028878796845674515, -0.002326586050912738, -0.09985280781984329, -0.07283888757228851, 0.14411774277687073, -0.1181168407201767, -0.017909085378050804, 0.01684972643852234, -0.17876523733139038, -0.03904132544994354, 0.027305996045470238, 0.0932106077671051, -0.09637030214071274, -0.026756571605801582, 0.1401934176683426, -0.10666140913963318, -0.026983195915818214, -0.06398646533489227, 0.1523434817790985, 0.0990215316414833, -0.06289389729499817, 0.009503182023763657, -0.09776541590690613, 0.09599214047193527, 0.015759475529193878, -0.01074148342013359, 0.15838466584682465, 0.15188665688037872, -0.017998667433857918, -0.16489428281784058, 0.03326582536101341, 0.06294222921133041, 0.14601606130599976, -0.03963841497898102, 0.10903070867061615, -0.06166616082191467, 0.12440294772386551, -0.18249498307704926, -0.18293608725070953, -0.08440876752138138, -0.04692443832755089, 0.11793721467256546, -0.02399168536067009, -0.05050510913133621, -0.0944727212190628, -0.03016408532857895, -0.05053652450442314, -0.009423727169632912, 0.004783303011208773, -0.17177020013332367, -0.030212650075554848, -0.041352465748786926, 0.06225363537669182, -0.13445128500461578, -0.030186129733920097, 0.022808123379945755, 0.06367480754852295, -0.0008342465152963996, 0.07054653018712997, -0.09179875999689102, 0.04478910192847252, 0.112188920378685, -0.10303971916437149, -0.06652992218732834, -0.11403395980596542, -0.1286887526512146, -0.14798668026924133, -0.08870600163936615, -0.06465377658605576, -0.08470551669597626, -0.09494373947381973, 0.08807618916034698, -0.02826864644885063, 0.08617736399173737, -0.0942642092704773, -0.036718156188726425, -0.0433734729886055, -0.024072619155049324, 0.06918411701917648, -0.06990509480237961, -0.23879387974739075, -0.019576797261834145, 0.006131208036094904, 0.01686534285545349, 0.08064507693052292, 0.005990307778120041, -0.10158683359622955, 0.1455065757036209, -0.1651228368282318, -0.04778861999511719, 0.03539648279547691, -0.15767313539981842, -0.046455588191747665, -0.034006960690021515, -0.1124967485666275, -0.007522422354668379, -0.03921457752585411, -0.17076154053211212, 0.11274252086877823, 0.024902161210775375, 0.13665205240249634, 0.12996463477611542, 0.17778614163398743, -0.03453155606985092, 0.1612877994775772, -0.07645193487405777, -0.08642904460430145, 0.07873804122209549, -0.01211633626371622, 0.05581915006041527, -0.1706656813621521, 0.03835318237543106, 0.015880776569247246, 0.1467236876487732, 0.08008749037981033, -0.027904922142624855, -0.14728127419948578, -0.014701672829687595, 0.00047756379353813827, 0.048894573003053665, -0.013941056095063686, 0.04267313331365585, -0.12306886911392212, 0.04710637405514717, -0.22816221415996552, 0.034174539148807526, 0.18672719597816467, 0.18894021213054657, 0.07475932687520981, 0.031141242012381554, -0.0413762666285038, 0.12157420814037323, 0.10639363527297974, 0.02286066859960556, 0.040089789777994156, -0.019809842109680176, 0.10052144527435303, -0.05457436293363571, -0.029971599578857422, 0.06262317299842834, -0.056994739919900894, -0.018727291375398636, 0.05486650764942169, -0.13142433762550354, 0.13136185705661774, 0.04997745156288147, -0.0655272975564003, -0.058861784636974335, -0.0183267779648304, -0.10324075818061829, -0.2681104242801666, 0.19515001773834229, 0.08098605275154114, -0.042189620435237885, 0.07852192223072052, 0.013506234623491764, 0.05380886793136597, 0.0986877828836441, 0.14956487715244293, 0.23175661265850067, -0.15857131779193878, 0.02105828933417797, -0.11693671345710754, 0.042785417288541794, -0.00035992058110423386, 0.06381465494632721, 0.02897302620112896, 0.062090545892715454, 0.0439666248857975, 0.005623563192784786, 0.18976977467536926, -0.09766987711191177, 0.019146284088492393, 0.009579617530107498, -0.06134569272398949, -0.07291549444198608, 0.08341523259878159, -0.16532696783542633, -0.08103381097316742, -0.030626913532614708, -0.11379766464233398, 0.007701025810092688, -0.07157638669013977, 0.1711731106042862, 0.014622942544519901, -0.10408570617437363, -0.06564470380544662, -0.1416662484407425, -0.11038601398468018, 0.0031007234938442707, -0.06758708506822586, 0.12479893863201141, 0.055237699300050735, 0.12198378145694733, 0.07373946160078049, 0.036914534866809845, 0.13053400814533234, 0.01905997470021248, 0.04175200313329697, -0.08834493905305862, -0.10419515520334244, 0.06447995454072952, 0.11347036063671112, -0.012894201092422009, -0.06830069422721863, -0.09534952044487, -0.1036018431186676, -0.17851245403289795, -0.2294161468744278, 0.14522023499011993, 0.08216634392738342, -0.025589341297745705, -0.1708342432975769, 0.08368407189846039, 0.05848338454961777, -0.045848920941352844, -0.023520126938819885, -0.030811063945293427, 0.001559632713906467, 0.035059887915849686, -0.04783050715923309, -0.03642914071679115, 0.07192198187112808, -0.0928817167878151, -0.1289714127779007, 0.009267321787774563, 0.11151684820652008, -0.07722530514001846, -0.07160396128892899, -0.10719624906778336, -0.1670987904071808, 0.14120720326900482, -0.07414127141237259, 0.09565801918506622, 0.0657254159450531, 0.002596119185909629, -0.12521453201770782, -0.006897222250699997, 0.1477472484111786, -0.07235570251941681, 0.00758938305079937, 0.08813164383172989, -0.00241348915733397, 0.06662704795598984, -0.13948555290699005, -0.0012919179862365127, -0.034054894000291824, -0.15631510317325592, 0.1141994372010231, -0.18984685838222504, -0.04838207736611366, -0.022483378648757935, -0.16430941224098206, -0.09802981466054916, -0.07440327107906342, 0.004197488073259592, -0.12172624468803406, -0.04083409160375595, -0.07541648298501968, -0.03659690171480179, -0.1923115849494934, 0.1206832230091095, 0.10869252681732178, 0.07619118690490723, 0.05273299664258957, 0.02463722974061966, -0.06336508691310883, 0.06620677560567856, -0.09262175858020782, -0.0543166846036911, 0.04414555802941322, -0.06166128069162369, 0.03284800425171852, 0.11846081167459488, 0.016094358637928963, -0.08354222774505615, 0.02754656784236431, -0.1367575079202652, 0.06564929336309433, 0.10323566198348999, 0.00022689957404509187, -0.2123039811849594, -0.02646033652126789, 0.007197144906967878, -0.20908033847808838, -0.2482409030199051, -0.02198684588074684, 0.11371655762195587, -0.024565858766436577, 0.11100739985704422, 0.052000902593135834, -0.022213013842701912, -0.09934057295322418, 0.05286523699760437, -0.08331428468227386, -0.15697988867759705, 0.12510083615779877, 0.031097635626792908, -0.10989417135715485, 0.05418958514928818, 0.07743427157402039, 0.1250307261943817, -0.014406127855181694, -0.278452605009079, -0.056711774319410324, -0.042781248688697815, 0.030348528176546097, -0.04552920535206795, 0.04096511751413345, 0.020551733672618866, -0.20535896718502045, 0.0459439642727375, -0.061503272503614426, -0.06817539036273956, 0.07270432263612747, -0.002003172878175974, 0.08281059563159943, -0.10359877347946167, -0.17446006834506989, -0.12828540802001953, 0.004282430279999971, -0.012507210485637188, -0.01739533059298992, -0.124276302754879, 0.11554373055696487, -0.1568925529718399, -0.04832000285387039, -0.11411410570144653, 0.051450349390506744, 0.14266245067119598, -2.0612613297998905e-05, -0.08048523217439651, -0.06843333691358566, 0.08223146200180054, -0.10587742179632187, -0.08250727504491806, -0.044301945716142654, -0.18062539398670197, 0.10386458039283752, 0.08413702249526978, -0.0894048735499382, 0.029165256768465042, -0.21410168707370758, -0.039136338979005814, -0.17242777347564697, 0.0054585556499660015, 0.03466099500656128, -0.18815726041793823, 0.04787212982773781, 0.01693940907716751, -0.15044572949409485, -0.13605919480323792, 0.0947495847940445, 0.005226988811045885, 0.10710012167692184, 0.060435324907302856, 0.1427619755268097, -0.014016370289027691, -0.04171282798051834, -0.02099579945206642, 0.028591029345989227, 0.08859561383724213, -0.07171860337257385, -0.10740513354539871, -0.06799841672182083, 0.009914864785969257, 0.07117301970720291, 0.0921139344573021, 0.003996950574219227, -0.12452100217342377, 0.03635670989751816, -0.049257174134254456, -0.0963096022605896, -0.15416426956653595, -0.05416075512766838, -0.034177515655756, -0.015753142535686493, -0.10332052409648895, -0.018446236848831177, -0.040735386312007904, -0.10284676402807236, 0.09549356997013092, -0.06992127001285553, 0.03962576389312744, 0.09562376141548157, -0.013067763298749924, -0.13097231090068817, -0.07161488384008408, -0.010951042175292969, -0.036555785685777664, 0.049442265182733536, 0.0011693035485222936, -0.03842718154191971, -0.15007226169109344, -0.0742640569806099, -0.07706530392169952, -0.03832125663757324, 0.12370052188634872, -0.13631866872310638, -0.05318256467580795, 0.057367343455553055, 0.1364167332649231, -0.03156071901321411, -0.062156908214092255, -0.01035810261964798, 0.01600400172173977, 0.06530214846134186, 0.15237709879875183, -0.17141282558441162, 0.10470101237297058, -0.02427874319255352, 0.015620612539350986, -0.0804005041718483, -0.06847945600748062, -0.024673758074641228, 0.11986760795116425, 0.026578472927212715, 0.06316325068473816, 0.040715232491493225, -0.01756102405488491, -0.20859462022781372, 0.1058562695980072, 0.050488825887441635, 0.03003496117889881, -0.06736306846141815, -0.06220915913581848, 0.05931508541107178, 0.03354968503117561, 0.017824221402406693, 0.02414691634476185, 0.05473554506897926, 0.11426983028650284, 0.12656386196613312, 0.014251763932406902, -0.07875924557447433, -0.055850688368082047, -0.055500101298093796, 0.06577908992767334, 0.1398344337940216, -0.06237895414233208, 0.032377246767282486, -0.016802122816443443, 0.10946502536535263, 0.046756599098443985, 0.037497587502002716, -0.1252710521221161, 0.054239947348833084, 0.08770327270030975, 0.015870753675699234, -0.07420893013477325, -0.13708889484405518, 0.10356906801462173, -0.03927168622612953, -0.00617595249786973, 0.1268012672662735, 0.12087956070899963, 0.054210830479860306, -0.10957150906324387, -0.033027902245521545, -0.06765998899936676, 0.152741476893425, 0.07974613457918167, 0.0937245711684227, -0.12261749058961868, -0.13727335631847382, -0.06843551248311996, -0.04846930131316185, -0.016091924160718918, -0.10988064855337143, -0.06138516589999199, -0.023323308676481247, -0.049727629870176315, -0.12962570786476135, -0.15305235981941223, -0.11899647861719131, -0.015484549105167389, 0.041430335491895676, 0.14805978536605835, 0.008293085731565952, -0.08471687883138657, 0.06972192227840424, 0.1256263554096222, -0.11646991223096848, -0.03861197829246521, -0.09316303580999374, 0.0013046440435573459, -0.0636696144938469, -0.05944936349987984, 0.020844845101237297, 0.09795677661895752, 0.06182818487286568, 0.01753760688006878, 0.06925653666257858, -0.005959451198577881, -0.059156544506549835, -0.01122555322945118, 0.14365677535533905, 0.14114344120025635, -0.12588252127170563, 0.052017346024513245, 0.08246354758739471, 0.0672605112195015, -0.00022499736223835498, 0.07613867521286011, 0.02227352373301983, 0.12020453065633774, -0.1511312574148178, 0.09646712243556976, -0.0911993533372879, -0.00996852945536375, 0.051143109798431396, -0.07075420022010803, 0.014068708755075932, 0.08030375838279724, -0.08731105178594589, 0.03185639530420303, 0.01213193591684103, -0.05107960104942322, -0.01124353427439928, -0.2098359763622284, -0.17213064432144165, 0.12952783703804016, -0.0038744353223592043, 0.04709029197692871, 0.06628832221031189, 0.07153075188398361, -0.14519605040550232, -0.06473791599273682, 0.014944125898182392, -0.06387002766132355, 0.18266960978507996, 0.09485273063182831, -0.07518410682678223, 0.00636398745700717, -0.00812278687953949, 0.14625094830989838, 0.06056658551096916, -0.041281476616859436, -0.07055703550577164, -0.04072852060198784, 0.08683638274669647, -0.04712008312344551, -0.13202130794525146, -0.09948266297578812, 0.02702060528099537, 0.004556024447083473, 0.050298530608415604, -0.07262764871120453, -0.014034192077815533, -0.1582595705986023, 0.016582636162638664, 0.17114853858947754, 0.03955591842532158, 0.05080956593155861, 0.05103142932057381, -0.006488677114248276, -0.0854068472981453, 0.009756681509315968, -0.01694956235587597, -0.1274467557668686, 0.04803205654025078, -0.14323876798152924, 0.15038317441940308, -0.025161471217870712, -0.003620458533987403, 0.11939984560012817, 0.03222117945551872, 0.041128236800432205, 0.08977090567350388, -0.12784509360790253, 0.08150860667228699, -0.14784662425518036, -0.02705514058470726, 0.03888588771224022, 0.06868167966604233, -0.1313573569059372, -0.15397357940673828, -0.11627471446990967, -0.16048455238342285, -0.0015059710713103414, 0.06149810925126076, 0.12412337958812714, -0.0014708866365253925, 0.042309001088142395, -0.11530152708292007, 0.03485250100493431, 0.015074956230819225, 0.09398441016674042, 0.017139270901679993, -0.12506631016731262, -0.07049038261175156, 0.028323814272880554, -0.041828006505966187, -0.005329426843672991, -0.09372373670339584, -0.0853574201464653, 0.12687012553215027, 0.07231055200099945, -0.00808446854352951, -0.07443423569202423, -0.16527795791625977, -0.06577865034341812, -0.09531032294034958, -0.07105988264083862, -0.1574133336544037, 0.12470851838588715, 0.04445100948214531, -0.06398412585258484, -0.0013691517524421215, 0.02583857625722885, -0.019246868789196014, 0.069000244140625, 0.1828431636095047, 0.039362989366054535, -0.04517581686377525, 0.1043543666601181, -0.1483645886182785, 0.009353459812700748, -0.013594594784080982, -0.10002660006284714, -0.045388706028461456, -0.08328411728143692, 0.062311213463544846, 0.08614307641983032, 0.06516805291175842, 0.01747918501496315, 0.019887156784534454, 0.16269831359386444, -0.049973320215940475, 0.040403082966804504, -0.08067424595355988, 0.07022880017757416, 0.09110512584447861, -0.05852016434073448, -0.0031682830303907394, 0.14015746116638184, -0.07022379338741302, -0.06981106102466583, 0.016564715653657913, 0.027728518471121788, -0.07790970802307129, -0.030287617817521095, -0.041964802891016006, 0.07216077297925949, 0.025141708552837372, -0.06047464907169342, 0.07491578906774521, -0.042829230427742004, -0.16005735099315643, -0.12138351052999496, 0.1314009428024292, 0.01159900613129139, -0.03036576323211193, -0.17526035010814667, 0.11876615136861801, 0.12551139295101166, 0.14716914296150208, -0.11449094116687775, 0.10460063815116882, 0.08911290019750595, 0.04694613441824913, -0.0751548632979393, -0.007912013679742813, -0.09733881056308746, 0.05052690953016281, 0.006715793162584305, 0.16923195123672485, 0.048563241958618164, -0.02300296537578106, -0.05227173864841461, 0.04479032754898071, -0.09713921695947647, -0.05649956688284874, -0.022887909784913063, 0.09256026148796082, 0.08720973134040833, -0.015321724116802216, 0.06671389937400818, -0.06376917660236359, -0.023431317880749702, 0.0558939054608345, -0.09867732971906662, 0.1140112578868866, 0.05474219098687172, 0.01763991266489029, -0.019035443663597107, 0.05483289062976837, 0.07481563091278076, 0.07081116735935211, -0.07008736580610275, -0.08284931629896164, -0.03040948510169983, 0.060979221016168594, -0.15703712403774261, 0.11051181703805923, 0.05072227492928505, 0.07825663685798645, -0.11407400667667389, -0.032187484204769135, -0.12087049335241318, 0.09997911006212234, 0.054620057344436646, 0.025367341935634613, 0.04060473293066025, 0.04777919501066208, 0.09948078542947769, -0.023605508729815483, -0.007663818076252937, -0.07973071187734604, -0.13910461962223053, 0.13004574179649353, -0.00641824072226882, -0.1085517629981041, -0.07256177067756653, -0.012569762766361237, 0.024759123101830482, 0.02846456505358219, -0.15383359789848328, 0.07486837357282639, 0.05122402310371399, -0.11275921016931534, 0.027240410447120667, -0.09069141000509262, 0.13991744816303253, 0.08653294295072556, 0.032965417951345444, -0.14072996377944946, 0.08796779811382294, 0.07585921883583069, 0.031279366463422775, 0.04797753319144249, -0.02471059560775757, 0.03293926641345024, -0.06403271853923798, -7.062629447318614e-05, 0.006566079333424568, -0.0033032044302672148, -0.132012739777565, -0.03186245262622833, 0.09554549306631088, -0.04849531129002571, 0.048398155719041824, 0.07131517678499222, 0.014979788102209568, 0.0556369423866272, 0.0825665295124054, 0.06964421272277832, 0.09362082928419113, -0.13039655983448029, -0.11377554386854172, -0.07102204114198685, -0.04010404646396637, -0.009301217272877693, -0.03263106942176819, 0.0781434178352356, -0.01638472080230713, 0.01454518735408783, -0.18064607679843903, -0.1989225149154663, -0.06440146267414093, 0.01794552244246006, 0.014486381784081459, -0.08172865957021713, 0.020023934543132782, -0.17706412076950073, -0.09428143501281738, 0.03616145998239517, 0.06842207163572311, -0.10076554119586945, 0.015087645500898361, -0.12380888313055038, 0.13360312581062317, -0.02794896438717842, -0.059532757848501205, -0.30798155069351196, 0.05338997393846512, -0.04575882479548454, -0.06806043535470963, 0.046034861356019974, 0.013635596260428429, -0.06556111574172974, 0.10387770086526871, -0.0037290200125426054, 0.01609855890274048, 0.16137689352035522, 0.07659635692834854, -0.07254470139741898, 0.030313992872834206, -0.026988735422492027, -0.07706715166568756, -0.13406109809875488, -0.19719600677490234, 0.04242251440882683, -0.08006878942251205, -0.05353336036205292, -0.10454811900854111, -0.036216139793395996, 0.06572490930557251, 0.035994283854961395, 0.001633322099223733, 0.02871532551944256, 0.06280253082513809, -0.001932926825247705, -0.14480772614479065, 0.052506428211927414, 0.11293955147266388, 0.051463913172483444, 0.010622615925967693, -0.06953167915344238, 0.1242888942360878, 0.09246307611465454, 0.040122564882040024, 0.09354041516780853, 0.024857299402356148, -0.09168370813131332, 0.07915491610765457, -0.4096190333366394, 0.010843277908861637, 0.036848850548267365, 0.16198508441448212, -0.009690540842711926, 0.033061861991882324, 0.03865918517112732, 0.019817383959889412, -0.02212219126522541, -0.04262722283601761, -0.03231465816497803, -0.0012631708523258567, 0.13952688872814178, 0.052419088780879974, 0.04348768666386604, -0.03929953649640083, -0.0879228487610817, 0.03253667429089546, 0.0716368556022644, -0.07343357801437378, -0.0008033215417526662, 0.03761843591928482, -0.010257366113364697, -0.11988363415002823, 0.03775199130177498, 0.03194818273186684, 0.024021655321121216, -0.04887038469314575, -0.15367671847343445, 0.10279039293527603, 0.08065013587474823, 0.09618303924798965, 0.04116273671388626, 0.11484852433204651, -0.047368112951517105, 0.02188270166516304, 0.18892662227153778, 0.058987218886613846, 0.0005526422755792737, 0.003159834537655115, -0.04394068941473961, -0.15155814588069916, -0.06419237703084946, -0.09142250567674637, 0.007061317563056946, 0.055523794144392014, -0.08863911777734756, 0.16479796171188354, 0.15839123725891113, 0.11185377836227417, -0.016918843612074852, -0.02288568764925003, -0.08594208210706711, 0.008295556530356407, -0.11430270969867706, -0.0018615983426570892, -0.10055286437273026, -0.0012746904976665974, -0.3121078908443451, -0.011649468913674355, -0.06980355829000473, 0.13483430445194244, 0.0835026279091835, 0.029051844030618668, 0.02524453215301037, -0.2434067279100418, 0.03616310656070709, 0.050850700587034225, -0.00655260169878602, 0.05714009702205658, -0.07784267514944077, 0.19570817053318024, 0.17353157699108124, -0.016766812652349472, 0.10231198370456696, 0.08640693873167038, 0.08748694509267807, -0.048987820744514465, -0.02286171168088913, 0.049051471054553986, 0.02880607359111309, -0.05857743322849274, -0.15414811670780182, -0.04089473560452461, 0.014947950839996338, 0.004709768109023571, -0.19505110383033752, -0.15015779435634613, 0.06397002190351486, -0.09791430830955505, 0.003133938880637288, 0.01431158185005188, 0.07019887119531631, -0.02664506435394287, 0.0057672299444675446, 0.002676025964319706, 0.11639739573001862, 0.09015011042356491, 0.019640032202005386, 0.12255571782588959, 0.1968277096748352, 0.048468369990587234, 0.13399195671081543, -0.12104986608028412, 0.04804472625255585, 0.030402889475226402, 0.1216384693980217, 0.013282337225973606, 0.006466659717261791, -0.1832873374223709, 0.0461878702044487, -0.026777448132634163, 0.008771345019340515, 0.03002207912504673, 0.013506913557648659, -0.11438851803541183, -0.0008858554065227509, -0.005641973111778498, -0.11469745635986328, -0.021858081221580505, -0.1587470918893814, -0.0007035203743726015, -0.010692109353840351, -0.28415483236312866, 0.02371089719235897, -0.004735535942018032, 0.06595750898122787, 0.03454764187335968, 0.05801329016685486, -0.0011943430872634053, -0.11299842596054077, -0.2717452049255371, 0.09485538303852081, 0.08039628714323044, -0.05105670914053917, -0.03427470102906227, -0.08957011252641678, 0.0015161841874942183, -0.04827430844306946, -0.05513956770300865, -0.11039071530103683, -0.08536699414253235, 0.02137882448732853, 0.012414011172950268, 0.05040252208709717, 0.018850693479180336, -0.04279617220163345, 0.05004183575510979, 0.01869449019432068, -0.09689730405807495, -0.08524947613477707, 0.07197797298431396, 0.05367590859532356, 0.037153977900743484, 0.08206861466169357, -0.016740264371037483, -0.06375879049301147, -0.034636322408914566, -0.1547432541847229, 0.11672554910182953, 0.07338200509548187, 0.06682994216680527, -0.11116346716880798, 0.022015834227204323, 0.06235301494598389, 0.06283041834831238, -0.1455073207616806, -0.15918999910354614, -0.022063029929995537, -0.05808981880545616, 0.07907405495643616, 0.04953918606042862, 0.10931746661663055, -0.10008853673934937, -0.05403047427535057, 0.09165763109922409, -0.06041106581687927, -0.0008732115384191275, -0.015284975990653038, 0.13340798020362854, 0.11639909446239471, -0.0873720720410347, -0.04412050545215607, 0.08305540680885315, -0.11033670604228973, 0.04932091012597084, -0.06371857970952988, 0.0212801955640316, 0.11886003613471985, 0.032959938049316406, 0.025481034070253372, 0.0809575766324997, 0.02848387509584427, -0.16274523735046387, 0.09490733593702316, -0.05149981379508972, 0.09248614311218262, 0.09876981377601624, -0.20944592356681824, -0.014238012954592705, 0.07355162501335144, -0.11749554425477982, 0.03275827690958977, -0.016081029549241066, -0.0055530257523059845, 0.06416746228933334, -0.07978980243206024, 0.021902048960328102, 0.044997576624155045, 0.17987403273582458, -0.05998207628726959, 0.11960854381322861, 0.03150879591703415, -0.01922336220741272, -0.0880649983882904, -0.02694086730480194, 0.15746775269508362, -0.16735878586769104, -0.02821468748152256, 0.0779583752155304, 0.05124093219637871, 0.03601962700486183, -0.15600131452083588, 0.019009089097380638, 0.10259266942739487, 0.008427893742918968, -0.1637726128101349, -0.044648073613643646, 0.16642093658447266, -0.06318865716457367, 0.033833399415016174, 0.06115338206291199, -0.0739760547876358, -0.0843571200966835, -0.09315770864486694, 0.07234375178813934, 0.1241958886384964, -0.11106431484222412, -0.0856986939907074, 0.10457590967416763, 0.057053204625844955, 0.1429917961359024, 0.07094928622245789, 0.0376274548470974, -0.1134328693151474, 0.07034065574407578, 0.1431189328432083, 0.025945743545889854, -0.0003373526851646602, 0.0786738395690918, -0.05312033370137215, -0.007955778390169144, 0.09316273033618927, -0.13926802575588226, -0.021376045420765877, -0.16072072088718414, -0.2198529839515686, -0.05474776774644852, 0.09670603275299072, -0.032767776399850845, -0.09562395513057709, 0.09717807918787003, -0.009867778979241848, 0.03569438308477402, -0.046492282301187515, 0.02316690795123577, -0.10511002689599991, 0.12487645447254181, -0.04883318766951561, 0.1563042402267456, -0.0876268818974495, -0.006441099569201469, 0.012146418914198875, 0.06207532063126564, 0.07413565367460251, -0.07598395645618439, -0.17437231540679932, -0.0674906075000763, -0.08033689111471176, 0.16465044021606445, -0.08143056184053421, 0.07237017899751663, -0.05598805472254753, 0.015829216688871384, 0.030594030395150185, -0.030285177752375603, 0.001280467608012259, 0.08665139228105545, -0.11384981125593185, 0.0965600311756134, -0.05892954394221306, 0.008946782909333706, 0.08404036611318588, 0.05688352882862091, -0.05672437325119972, -0.17685610055923462, 0.10570087283849716, -0.09792759269475937, 0.05913178250193596, -0.016339415684342384, 0.022061871364712715, -0.01808491162955761, 0.11013183742761612, -0.0475594699382782, 0.09419989585876465, 0.06847058236598969, -0.028377875685691833, -0.12524525821208954, 0.0743187889456749, 0.12015193700790405, -0.02867255173623562, 0.07141274213790894, -0.07863979041576385, -0.1263962835073471, -0.19822831451892853, 0.09623900055885315, -0.13891232013702393, -0.11271461844444275, -0.016171470284461975, -0.048551104962825775, 0.06406202912330627, -0.08455969393253326, -0.017108280211687088, -0.04127329960465431, 0.02248506434261799, 0.04296495020389557, -0.013379210606217384, 0.012843011878430843, 0.04519973322749138, -0.09440065920352936, -0.040829919278621674, -0.062219783663749695, 0.03831667825579643, 0.05450308322906494, -0.182133287191391, -0.029375124722719193, 0.04877099394798279, 0.09023230522871017, 0.01245125848799944, -0.06985101103782654, 0.07034961879253387, 0.10170745849609375, -0.024603204801678658, 0.08699007332324982, -0.029251815751194954, 0.05728461220860481, 0.0988122969865799, -0.0889529287815094, -0.12411165237426758, 0.05853618308901787, 0.034479089081287384, 0.12939870357513428, 0.13244234025478363, -0.0011746309464797378, 0.0679260790348053, -0.04119992256164551, -0.08161386847496033, 0.021957559511065483, 0.06426382809877396, -0.02312941662967205, -0.030875787138938904, -0.020524876192212105, 0.1425093114376068, 0.07574459910392761, -0.06296415627002716, -0.010113065131008625, -0.08703523874282837, 0.04807748645544052, 0.11027298867702484, -0.13542266190052032, -0.0817394107580185, 0.00267252279445529, 0.012878497131168842, 0.05000228062272072, 0.13657934963703156, 0.0043028960935771465, -0.14873109757900238, 0.06991592794656754, -0.11519647389650345, -0.009653594344854355, 0.06025883927941322, -0.09439635276794434, -0.07870662212371826, 0.13563691079616547, 0.04562203958630562, 0.02978147566318512, -0.08001930266618729, -0.07965628802776337, 0.010821688920259476, 0.10893058031797409, 0.021751053631305695, -0.1207464411854744, 0.14494171738624573, 0.04251786321401596, -0.00656170304864645, -0.07698434591293335, 0.0984986424446106, -0.0690535381436348, -0.030547160655260086, 0.021871749311685562, 0.03904414921998978, 0.09022916853427887, -0.10742896795272827, -0.0003719287342391908, 0.09382029622793198, -0.10878731310367584, -0.032268721610307693, -0.08407827466726303, -0.0999377965927124, 0.01867879554629326, -0.10897704213857651, 0.03211698308587074, 0.0668143481016159, -0.15542413294315338, 0.04452124610543251, 0.04567025974392891, 0.06761131435632706, 0.042355623096227646, -0.13760808110237122, -0.01855560950934887, -0.06238587573170662, 0.10851236432790756, 0.0025847244542092085, -0.06292180716991425, -0.11112277954816818, -0.07897185534238815, -0.07222755253314972, -0.007490358781069517, -0.09713010489940643, 0.023349395021796227, 0.06624724715948105, -0.009304800070822239, 0.026936521753668785, 0.03184746950864792, -0.02830849029123783, -0.026139071211218834, -0.06703739613294601, -0.01086937915533781, 0.04867338389158249, 0.10151726752519608, -0.10184574872255325, -0.06861677020788193, 0.04509013146162033, 0.01627737656235695, 0.07403326779603958, 0.11752510815858841, -0.07368268072605133, 0.025440433993935585, -0.0060992189683020115, -0.029532691463828087, 0.03378631919622421, 0.0514504611492157, 0.09090161323547363, 0.0307841207832098, -0.12724830210208893, 0.1378360241651535, 0.07977616041898727, 0.07085242867469788, -0.029195157811045647, 0.07715889811515808, -0.11080804467201233, 0.03940126672387123, 0.03821351006627083, 0.1001800149679184, 0.07140537351369858, 0.020802833139896393, 0.09894852340221405, 0.017244352027773857, 0.14876137673854828, 0.08800394088029861, -0.057900771498680115, 0.02310333028435707, -0.06539084762334824, 0.08114735782146454, -0.14050567150115967, 0.07291107624769211, -0.007848070003092289, 0.07134108990430832, -0.05728612095117569, -0.06602541357278824, -0.08400044590234756, -0.023130886256694794, 0.003113661427050829, -0.0648905411362648, -0.0363837331533432, 0.13700057566165924, -0.01859199069440365, 0.028713474050164223, -0.09786836057901382, 0.07901421934366226, -0.08699553459882736, 0.09773764759302139, 0.05952854081988335, 0.059664368629455566, -0.0012863051379099488, 0.0679701641201973, 0.0952523723244667, -0.09009178727865219, -0.062471408396959305, -0.10151492804288864, -0.15416347980499268, -0.09620069712400436, -0.017779963091015816, 0.10127802938222885, -0.04055165499448776, 0.046818990260362625, 0.09152181446552277, -0.12704628705978394, 0.1111355870962143, -0.11170113831758499, 0.020262468606233597, 0.06816337257623672, -0.11421111226081848, -0.00613350560888648, -0.08698634803295135, -0.1353590190410614, -0.08617846667766571, -0.04719475284218788, 0.08507568389177322, -0.011874446645379066, -0.04742467403411865, 0.08405615389347076, -0.13369666039943695, 0.0728515088558197, -0.09661324322223663, 0.037291474640369415, 0.06928863376379013, 0.0250257421284914, 0.042330365628004074, -0.054240964353084564, 0.08875103294849396, 0.006205329671502113, 0.07536396384239197, 0.07990863919258118, 0.03131898120045662, 0.055847276002168655, 0.0772361308336258, 0.13567796349525452, 0.07016505300998688, 0.06004166230559349, 0.07536086440086365, -0.029267486184835434, -0.18143035471439362, -0.07074230909347534, -0.0430101603269577, -0.047707073390483856, -0.07824397832155228, -0.008221298456192017, -0.0567345917224884, 0.03173714131116867, -0.00341627630405128, -0.03911324590444565, 0.04985688254237175, -0.005524500273168087, 0.06557226926088333, -0.1436116099357605, 0.018889665603637695, 0.07686403393745422, 0.06446605920791626, -0.06965575367212296, -0.05690019950270653, -0.0036189511884003878, -0.18140016496181488, -0.034958090633153915, -0.049359966069459915, -0.07706686854362488, 0.01361083984375, -0.1144871637225151, 0.048849038779735565, -0.11973261833190918, 0.03919122368097305, -0.12583604454994202, -0.01732330583035946, 0.10797449201345444, -0.015057030133903027, 0.05781087651848793, 0.10682354867458344, 0.08345262706279755, 0.011949021369218826, 0.0036070470232516527, -0.05784609168767929, -0.12845094501972198, -0.09912977367639542, -0.09346035122871399, -0.07978425920009613, -0.0021198212634772062, 0.05437003821134567, 0.07808196544647217, 0.035029370337724686, -0.07435085624456406, -0.11215250194072723, -0.0744907408952713, -0.045235879719257355, 0.10686533153057098, 0.09522616118192673, 0.06202146038413048, 0.037424080073833466, -0.11301470547914505, 0.13052606582641602, -0.0040544141083955765, -0.013585022650659084, -0.07590461522340775, -0.07151737064123154, -0.13374026119709015, 0.10930579900741577, -0.013288136571645737, 0.1288423389196396, -0.055849164724349976, 0.05080040916800499, -0.007160081062465906, -0.11807460337877274, 0.09071975946426392, 0.0728132426738739, -0.015915052965283394, -0.07142817229032516, -0.10777860134840012, 0.06048797443509102, 0.009848078712821007, 0.08112386614084244, 0.05182944983243942, -0.06842776387929916, 0.016203220933675766, 0.08224495500326157, 0.032907113432884216, -0.045453350991010666, 0.021669374778866768, 0.12046615034341812, 0.08383697271347046, 0.054778795689344406, -0.0713190957903862, 0.06449688971042633, -0.03714791685342789, 0.09437669813632965, 0.024378662928938866, -0.06203204020857811, 0.05584938824176788, 0.04398709908127785, -0.14651381969451904, -0.05495757982134819, -0.02586851455271244, -0.06237580254673958, -0.1134747788310051, 0.0726260393857956, -0.029162373393774033, -0.12921683490276337, -0.04166408255696297, -0.038769885897636414, 0.10011304914951324, -0.002494702348485589, 0.10984236747026443, -0.14627739787101746, 0.0019299171399325132, 0.03565201535820961, -0.12669624388217926, 0.06208788603544235, -0.12119194865226746, -0.031645677983760834, -0.09935815632343292, 0.07578932493925095, -0.13321195542812347, -0.06535083800554276, 0.09962965548038483, -0.008870995603501797, 0.07572462409734726, -0.0572379045188427, 0.06899255514144897, 0.0681152492761612, -0.048100411891937256, 0.0076963468454778194, -0.09736482053995132, -0.1455734223127365, -0.12893836200237274, -0.009945862926542759, 0.021145686507225037, -0.1003132164478302, -0.05671132355928421, 0.058269355446100235, -0.014070824719965458, 0.09880305826663971, -0.05562322586774826, -0.15892663598060608, -0.09014543145895004, 0.09064534306526184, -0.1379929631948471, 0.0377868115901947, 0.02270267717540264, 0.06815677881240845, -0.11785203218460083, -0.04703395441174507, 0.10696079581975937, -0.13829746842384338, 0.002646441338583827, 0.04930499568581581, 0.07421308010816574, -0.1479894369840622, -0.0872843861579895, -0.04930812865495682, 0.04597228020429611, 0.05271770432591438, -0.13831180334091187, 0.05564071610569954, 0.11933126300573349, -0.11355596780776978, -0.06162106990814209, -0.03741233050823212, 0.08783050626516342, -0.08845892548561096, 0.09014084190130234, 0.11094561219215393, -0.0777151882648468, 0.16897109150886536, -0.06816460192203522, -0.04377167671918869, -0.09523603320121765, -0.026835573837161064, 0.12070232629776001, 0.10000278055667877, -0.15814493596553802, -0.09523417055606842, 0.14867918193340302, -0.06882505863904953, 0.07859978079795837, 0.1525249034166336, 0.038689225912094116, -0.12475191801786423, -0.17796464264392853, -0.010336481034755707, 0.03870492801070213, -0.10346487909555435, -0.03878059238195419, 0.020550193265080452, -0.051718659698963165, -0.15451446175575256, -0.10056169331073761, 0.07037928700447083, -0.004905405454337597, 0.05765049532055855, -0.03231928125023842, 0.08596942573785782, -0.16039668023586273, 0.00932356808334589, -0.1348925232887268, -0.006791597232222557, -0.04708530381321907, 0.029624804854393005, -0.014490476809442043, 0.10886402428150177, 0.014251389540731907, 0.022597678005695343, -0.23356573283672333, 0.027466125786304474, -0.014025211334228516, -0.03439711406826973, 0.037360526621341705, 0.050092510879039764, -0.005773467011749744, 0.09794557839632034, 0.07681956142187119, 0.03217559680342674, 0.025638079270720482, 0.10251423716545105, 0.11006544530391693, 0.046147145330905914, 0.017221881076693535, -0.12249267846345901, -0.10210520774126053, 0.0450294092297554, 0.034055132418870926, 0.11737482249736786, -0.019414596259593964, -0.12830816209316254, -0.04538791999220848, 0.16153664886951447, 0.04859885200858116, -0.0015514451079070568, -0.14511199295520782, -0.12024799734354019, 0.16518832743167877, 0.15856172144412994, 0.07740283012390137, 0.07299712300300598, 0.09389698505401611, -0.16165108978748322, 0.12689651548862457, -0.06294598430395126, 0.08325662463903427, -0.10756532102823257, 0.05034695565700531, -0.08198677003383636, -0.02338683418929577, -0.1495315581560135, -0.04607115685939789, 0.04851215332746506, -0.03900574892759323, -0.09759537130594254, 0.06073039397597313, 0.06177771836519241, -0.15615279972553253, 0.0684816837310791, -0.07245893776416779, -0.17249153554439545, 0.05683857202529907, -0.1413469910621643, 0.008241803385317326, 0.1114327535033226, 0.02763274684548378, -0.004075999371707439, -0.03648480027914047, -0.22907289862632751, 0.14249101281166077, 0.04392563924193382, -0.08347027003765106, -0.17912566661834717, -0.17085261642932892, -0.05782775208353996, 0.07705811411142349, -0.09946120530366898, -0.04174289107322693, 0.06445833295583725, -0.06674082577228546, -0.1773705780506134, 0.14568831026554108, 0.15917833149433136, -0.15889115631580353, -0.014209006913006306, -0.004222732502967119, 0.0486542209982872, 0.12157216668128967, -0.07128190994262695, 0.018958689644932747, -0.050641924142837524, 0.012206782586872578, -0.1379445344209671, -0.04121006280183792, -0.09890160709619522, -0.040936991572380066, -0.047178808599710464, 0.09167162328958511, 0.05736662447452545, 0.0012188608525320888, -0.04481799900531769, -0.042368676513433456, 0.08298846334218979, 0.08079865574836731, -0.13405194878578186, -0.01072718482464552, -0.01564848981797695, -0.10293005406856537, -0.134427011013031, 0.06736459583044052, -0.029592109844088554, -0.03225615248084068, -0.07793039083480835, -0.12142167240381241, -0.11262385547161102, -0.010858322493731976, 0.08835364878177643, 0.029498346149921417, -0.09959428757429123, -0.12444929778575897, -0.113148532807827, -0.08889194577932358, 0.013503939844667912, -0.10539151728153229, 0.1111190915107727, -0.08194723725318909, -0.1271585375070572, 0.01705869659781456, -0.010562337934970856, -0.06233501434326172, 0.07081461697816849, -0.017171798273921013, 0.04520776867866516, 0.06679116189479828, -0.0997341051697731, 0.03282073140144348, 0.01082728710025549, -0.05229727178812027, -0.053808603435754776, -0.08155212551355362, 0.11090754717588425, -0.04457550868391991, -0.16377148032188416, 0.12868480384349823, -0.00197644648142159, -0.021089935675263405, -0.1087719202041626, -0.05680901184678078, 0.08008059114217758, 0.02296043559908867, 0.034309130162000656, 0.040177058428525925, -0.14055292308330536, -0.06591562926769257, -0.1357949823141098, -0.170021191239357, 0.07898089289665222, -0.03862101212143898, -0.07923651486635208, 0.002355968113988638, -0.14505265653133392, 0.08876761794090271, 0.06048152223229408, 0.09541282057762146, 0.08486119657754898, -0.042371299117803574, -0.10731402039527893, 0.020095013082027435, 0.012479891069233418, -0.1213180348277092, 0.014837073162198067, 0.05873226746916771, -0.10227774828672409, -0.12179054319858551, 0.0003528503584675491, -0.1351514756679535, -0.14990945160388947, -0.01454146858304739, 0.0798405334353447, 0.14160242676734924, 0.03421355411410332, 0.15606708824634552, -0.0250608641654253, -0.1459689438343048, -0.04565972462296486, 0.052144818007946014, 0.02203306555747986, 0.0335216149687767, -0.0028509567491710186, -0.13330407440662384, 0.05801042914390564, -0.09968899935483932, 0.08775001764297485, 0.08761264383792877, 0.08441946655511856, 0.06491599977016449, -0.011247849091887474, 0.013169769197702408, -0.09580325335264206, 0.054650917649269104, -0.0028194081969559193, -0.10073714703321457, -0.04993278533220291, 0.09096907824277878, 0.08963722735643387, 0.08781378716230392, 0.12645046412944794, -0.015945760533213615, 0.03462929651141167, 0.050468891859054565, 0.021374385803937912, 0.03156212717294693, 0.07737431675195694, 0.05808410048484802, -0.097993403673172, -0.11849543452262878, -0.01951359026134014, -0.1806204617023468, 0.032932352274656296, -0.03528903052210808, 0.007804029155522585, -0.07617403566837311, 0.023511869832873344, 0.12972962856292725, 0.001597605412825942, 0.11691569536924362, -0.03841817006468773, 0.055618684738874435, -0.03443189710378647, -0.022192157804965973, -0.08234073221683502, -0.09615890681743622, -0.08696842193603516, -0.10475731641054153, -0.008076424710452557, -0.028050914406776428, -0.007492681499570608, 0.01100281160324812, 0.08748043328523636, -0.02396201901137829, 0.03302708640694618, -0.11065841466188431, -0.03766941279172897, -0.014107437804341316, 0.09098644554615021, -0.08930577337741852, -0.08625894039869308, 0.04646554961800575, 0.12781073153018951, 0.07792152464389801, 0.11093243211507797, -0.05031207948923111, 0.12912015616893768, 0.01794476807117462, -0.13450084626674652, -0.036871448159217834, -0.06502871960401535, -0.07327727228403091, -0.09795345366001129, -0.10628848522901535, 0.10804250836372375, -0.0656747817993164, -0.03925026208162308, -0.003696110099554062, 0.11357185244560242, 0.06123397499322891, 0.020092792809009552, 0.06091105937957764, -0.08378183096647263, -0.15645575523376465, 0.05795779079198837, -0.010438578203320503, -0.20910170674324036, 0.031136110424995422, -0.08510793745517731, 0.0749245434999466, -0.15052665770053864, 0.023272519931197166, -0.07588884234428406, 0.029686179012060165, 0.04534432291984558, -0.001714015961624682, -0.04056164622306824, 0.021780474111437798, -0.038098569959402084, -0.038805801421403885, -0.14903438091278076, 0.06295027583837509, 0.01932251639664173, -0.1907617449760437, 0.10930772125720978, 0.07911291718482971, -0.03142726793885231, -0.028907861560583115, -0.09121766686439514, -0.013773101381957531, 0.07490400969982147, -0.004049807786941528, -0.055345531553030014, 0.0799834355711937, 0.0740802213549614, 0.1104460135102272, 0.02655714750289917, 0.053464896976947784, -0.05297979712486267, -0.0649215504527092, 0.05339450389146805, 0.022118177264928818, 0.005925215780735016, 0.07301227003335953, -0.0833505168557167, -0.08647119253873825, -0.12548229098320007, 0.05112176015973091, -0.11346005648374557, -0.1196756586432457, 0.03636225685477257, -0.012999605387449265, -0.030740704387426376, -0.05608122795820236, -0.11077956855297089, 0.06760307401418686, 0.11452130973339081, 0.023441433906555176, 0.0207626074552536, 0.08184298872947693, -0.10251284390687943, -0.015457549132406712, 0.08064176887273788, 0.05869203060865402, 0.10045256465673447, -0.10715897381305695, 0.07991588860750198, -0.06148217245936394, 0.057180892676115036, 0.08232016861438751, -0.10922105610370636, 0.07065519690513611, -0.027647072449326515, 0.08914651721715927, -0.10401081293821335, 0.0926373079419136, -0.09228009730577469, -0.04389720782637596, 0.013776076957583427, -0.05447566881775856, -0.09000154584646225, 0.07804428040981293, -0.10442919284105301, -0.06876765191555023, 0.0444808304309845, -0.10034353286027908, 0.10510936379432678, 0.010923926718533039, 0.13474637269973755, -0.060148630291223526, -0.030801111832261086, 0.051809459924697876, 0.11012177169322968, -0.12316663563251495, 0.02395651303231716, -0.07529118657112122, 0.07534852623939514, 0.0011308765970170498, -0.0017798193730413914, 0.13130955398082733, -0.021644888445734978, -0.08435184508562088, 0.11689966917037964, -0.025840140879154205, -0.014015858061611652, 0.11046605557203293, -0.12782223522663116, 0.07692017406225204, -0.062223855406045914, -0.11121363192796707, -0.11537586897611618, 0.06679203361272812, 0.02025403268635273, 0.10412012040615082, -0.019456986337900162, -0.044464293867349625, 0.043331801891326904, -0.03844360262155533, -0.06731673330068588, -0.022488221526145935, 0.03583012521266937, -0.07031825929880142, 0.05162714794278145, -0.06364110112190247, 0.08289305120706558, 0.007351023610681295, 0.05013008415699005, -0.09336040914058685, 0.03799034282565117, -0.06708187609910965, -0.09924015402793884, 0.06208483874797821, 0.047855112701654434, 0.07914631813764572, -0.06415792554616928, -0.08379409462213516, -0.027889061719179153, -0.09002012759447098, 0.09184819459915161, 0.08641571551561356, -0.08797701448202133, -0.011074024252593517, 0.06974427402019501, 0.05871126055717468, 0.0845722109079361, -0.01026191096752882, 0.0782407894730568, 0.0656251385807991, -0.035534895956516266, -0.003207080066204071, -0.06751245260238647, 0.07376158237457275, -0.14679433405399323, -0.10908396542072296, -0.11065840721130371, -0.08161276578903198, -0.1305801421403885, 0.1306874305009842, -0.14275576174259186, 0.02484736405313015, 0.06049675494432449, 0.05537687614560127, -0.006662958301603794, -0.14604109525680542, -0.002454550703987479, 0.016815394163131714, 0.049049802124500275, -0.15934354066848755, -0.09275563806295395, 0.0792388767004013, -0.041115935891866684, 0.0927852988243103, 0.06824218481779099, -0.08049166202545166, 0.13723331689834595, 0.0716344490647316, 0.03702063485980034, -0.032178375869989395, 0.012344229966402054, 0.05651972442865372, 0.13580664992332458, -0.03759903460741043, -0.05836519971489906, -0.0384708046913147, -0.003940611146390438, 0.009554596617817879, -0.11781319230794907, -0.0203938577324152, 0.061759527772665024, -0.03216399624943733, 0.08513391017913818, 0.1158180683851242, -0.1255556046962738, 0.001498128054663539, -0.04371972382068634, 0.06631652265787125, 0.06468833982944489, 0.08254729211330414, -0.0632590800523758, 0.17175978422164917, -0.003872360335662961, -0.13461044430732727, -0.10022648423910141, 0.019720427691936493, 0.00124067859724164, 0.05871700122952461, 0.03601168841123581, 0.03451184555888176, -0.017099512740969658, -0.03443489223718643, 0.0025137742049992085, -0.12767459452152252, 0.0957273468375206, 0.12522611021995544, 0.09975632280111313, -0.06344150006771088, -0.05851210281252861, -0.047974053770303726, -0.08966805785894394, 0.011691792868077755, 0.07500169426202774, -0.09860441833734512, 0.002195135224610567, -0.009881350211799145, -0.09242043644189835, 0.1450284719467163, 0.03487594425678253, 0.02002721279859543, 0.044748712331056595, -0.021587690338492393, -0.04045422375202179, 0.02390645444393158, -0.025384092703461647, -0.04946909472346306, -0.13693714141845703, 0.021952621638774872, -0.0005779688945040107, 0.15361565351486206, 0.05941104143857956, -0.026974627748131752, -0.012511949986219406, -0.0869508683681488, 0.03623373806476593, 0.007196963299065828, 0.05085910111665726, 0.02363625168800354, -0.12704280018806458, 0.05307250842452049, -0.12098297476768494, 0.09255684167146683, -0.11968578398227692, -0.1366930902004242, 0.10140803456306458, 0.02153768390417099, 0.011414684355258942, -0.02514146827161312, -0.07466468960046768, 0.03983210399746895, -0.09108960628509521, 0.10727179795503616, -0.05096738412976265, 0.05579155310988426, -0.08880329132080078, 0.007587534375488758, 0.02911141887307167, -0.09626376628875732, 0.0696801096200943, -0.061781078577041626, 0.1083451509475708, 0.015253188088536263, 0.05161730945110321, 0.06879264861345291, -0.026845648884773254, -0.02227475866675377, -0.05623140558600426, -0.07064824551343918, 0.030667316168546677, -0.025510743260383606, -0.024727992713451385, 0.10320215672254562, 0.03111741691827774, 0.058633722364902496, 0.02566499635577202, -0.062355559319257736, 0.02908680960536003, -0.14884109795093536, 0.051254238933324814, -0.08519376069307327, -0.006443806923925877, -0.10622456669807434, 0.0037766285240650177, 0.062065694481134415, 0.030120737850666046, -0.10748441517353058, -0.2192343920469284, -0.025038259103894234, 0.07489601522684097, 0.10178442299365997, -0.011853881180286407, -0.22684931755065918, 0.09495214372873306, -0.09508118778467178, -0.11596202850341797, -0.04678066447377205, 0.08686748147010803, -0.09001754224300385, -0.0691041350364685, 0.09941121190786362, 0.010590026155114174, 0.03141901269555092, -0.04757142812013626, 0.03563053533434868, 0.09920384734869003, -0.21437156200408936, 0.08357587456703186, 0.10546579957008362, -0.05549109727144241, -0.00569531787186861, 0.11701130121946335, 0.019555963575839996, 0.06735018640756607, 0.0967332124710083, -0.11590322852134705, -0.10863561183214188, -0.07120837271213531, 0.06493666768074036, 0.03442027047276497, 0.0813976302742958, 0.039238620549440384, 0.023922450840473175, -0.10863270610570908, 0.07038256525993347, -0.02600766345858574, -0.05397634953260422, -0.038332339376211166, -0.09004487097263336, 0.0021517565473914146, 0.12431871891021729, -0.018342746421694756, 0.001503716572187841, -0.06143823266029358, 0.12626925110816956, -0.11555847525596619, -0.05450146645307541, -0.08230789005756378, -0.00940085668116808, 0.020887073129415512, -0.1577700674533844, 0.013379501178860664, 0.0680551826953888, 0.1089400053024292, -0.15900179743766785, 0.07175127416849136, -0.06897806376218796, -0.016666458919644356, 0.06144138053059578, 0.09552082419395447, -0.1196633130311966, -0.14189572632312775, 0.02542720176279545, -0.06529781967401505, 0.005213842261582613, -0.07254619151353836, -0.0854286476969719, -0.15094229578971863, 0.039897188544273376, 0.12202468514442444, 0.055133283138275146, -0.10325189679861069, 0.0926874503493309, 0.09135319292545319, -0.01873670145869255, -0.051304370164871216, -0.010824615135788918, 0.14258629083633423, -0.04209833964705467, -0.03524240851402283, -0.11303900182247162, -0.18652606010437012, -0.05716797336935997, 0.0866512879729271, 0.13895905017852783, -0.06340192258358002, -0.1797180324792862, -0.15982797741889954, -0.029102155938744545, 0.06970676779747009, -0.10076756775379181, -0.13494974374771118, 0.08744997531175613, -0.03880339488387108, 0.07246863842010498, 0.11170449107885361, 0.004013845697045326, -0.05694051831960678, -0.05026934668421745, -0.03479727730154991, 0.10260912030935287, -0.14059507846832275, 0.09116233885288239, -0.05318319797515869, 0.13820818066596985, 0.08329924196004868, 0.022854337468743324, -0.13706080615520477, -0.030775563791394234, 0.0786120668053627, -0.09936592727899551, -0.14166514575481415, -0.017064740881323814, -0.04147404432296753, -0.08167047053575516, 0.02303231693804264, -0.059398554265499115, 0.06722045689821243, -0.017782043665647507, 0.032954588532447815, -0.08298135548830032, -0.10238045454025269, 0.006815080065280199, -0.07489494979381561, 0.1009855717420578, -0.04275433346629143, 0.1255466639995575, -0.1206280067563057, -0.08456113189458847, -0.08907438069581985, -0.07488018274307251, 0.05684113875031471, -0.063468337059021, 0.005572309251874685, 0.10453954339027405, -0.009036026895046234, 0.03158757463097572, -0.021473662927746773, -0.12397019565105438, -0.02294217050075531, -0.012186340987682343, 0.09956519305706024, 0.08367446064949036, -0.056074801832437515, 0.061182647943496704, -0.1002100333571434, -0.12385696917772293, -0.04111741483211517, 0.14607210457324982, -0.009068203158676624, -0.09260603785514832, -0.07021128386259079, 0.08922754228115082, 0.07205778360366821, 0.06138033792376518, 0.009455000050365925, 0.07732874155044556, 0.022959740832448006, 0.12729547917842865, -0.09232041239738464, -0.010772866196930408, 0.09131404012441635, 0.10582970827817917, 0.16303427517414093, 0.016457878053188324, 0.10090189427137375, -0.06990689039230347, -0.05424712225794792, 0.03404613584280014, 0.1664397269487381, -0.011220346204936504, 0.07344755530357361, 0.19983938336372375, 0.07063449174165726, 0.04067283868789673, 0.12241988629102707, 0.032425668090581894, -0.03444891422986984, -0.02056087553501129, -0.030110321938991547, -0.03488696366548538, 0.020043805241584778, 0.11755320429801941, 0.016869060695171356, -0.006766040809452534, 0.10605441778898239, 0.09884370118379593, 0.1625620573759079, -0.126357764005661, 0.14148375391960144, -0.16238729655742645, -0.03502447158098221, -0.006715123075991869, 0.009195045568048954, 0.09448219835758209, 0.08303820341825485, 0.0902852714061737, -0.03458480164408684, 0.0385628379881382, -0.036278121173381805, -0.07399073243141174, 0.12994854152202606, 0.08986783772706985, -0.005437866784632206, -0.001953528029844165, -0.12102533876895905, -0.0430493988096714, 0.007449606899172068, -0.038580916821956635, 0.019626077264547348, 0.024116981774568558, -0.009038173593580723, 0.08652366697788239, -0.006499203387647867, 0.017939342185854912, 0.0696726068854332, -0.10459788143634796, 0.11034881323575974, 0.0575842410326004, 0.0561213344335556, 0.12467149645090103, -0.1192648857831955, 0.14829781651496887, 0.15149511396884918, -0.003966594580560923, 0.06787535548210144, 0.00955589022487402, 0.13443641364574432, -0.025993654504418373, 0.04779161885380745, -0.13825723528862, -0.0913117304444313, 0.02538205496966839, 0.05445859208703041, 0.07968349754810333, -0.05589786544442177, -0.05582629144191742, 0.0055655743926763535, 0.02004254423081875, -0.016124241054058075, 0.009668873623013496, 0.042694978415966034, 0.008548712357878685, 0.020175181329250336, -0.08308785408735275, 0.04474947601556778, 0.05125808343291283, -0.05547868087887764, -0.055357079952955246, 0.017954781651496887, -0.09418343007564545, 0.003006561892107129, -0.09816797822713852, 0.05396455153822899, -0.10029273480176926, -0.11400064080953598, -0.034861017018556595, 0.047027453780174255, -0.0007576143252663314, 0.0846337154507637, -0.053172510117292404, -0.10542335361242294, -0.1184627115726471, 0.037436965852975845, -0.1144484356045723, 0.06566588580608368, -0.07055231183767319, 0.1467527598142624, -0.03966064006090164, -0.04441281780600548, 0.0460871160030365, 0.13100887835025787, 0.13022588193416595, 0.06267863512039185, 0.09388179332017899, -0.11843116581439972, -0.007767692673951387, -0.045907437801361084, -0.04707072302699089, 0.1343730092048645, -0.018953390419483185, 0.11121165007352829, 0.16192293167114258, -0.14744575321674347, 0.00850564893335104, 0.12753871083259583, 0.026603559032082558, -0.07678920030593872, 0.14974136650562286, 0.06333745270967484, -0.06675995141267776, 0.039283089339733124, -0.06910083442926407, -0.01789831928908825, 0.024339262396097183, -0.07104778289794922, -0.026301497593522072, -0.1065104678273201, -0.05119796842336655, 0.04360818862915039, 0.21337491273880005, 0.04446054622530937, -0.07829276472330093, -0.10739476978778839, 0.08460166305303574, 0.036960672587156296, -0.04746641591191292, -0.0076231942512094975, -0.029871808364987373, 0.036762356758117676, 0.07819653302431107, 0.1300465315580368, 0.05892891809344292, 0.040489256381988525, 0.11148867756128311, 0.151938334107399, -0.059460218995809555, -0.0231969952583313, -0.06087996065616608, 0.023697195574641228, -0.07443273812532425, -0.13672621548175812, 0.13698656857013702, 0.043293360620737076, -0.11668626964092255, 0.02731950767338276, -0.0722065344452858, 0.07971607893705368, 0.08459591865539551, 0.014458809047937393, 0.023536615073680878, 0.10487665235996246, 0.009126449003815651, 0.08465038985013962, -0.07361515611410141, 0.1512862741947174, -0.1402917206287384, 0.027266409248113632, -0.1005609929561615, 0.14629271626472473, 0.0988306775689125, -0.07223330438137054, -0.07674525678157806, -0.05332360416650772, -0.07029303163290024, 0.10872314125299454, 0.0016757587436586618, 0.09292594343423843, -0.03453625366091728, -0.09511613100767136, 0.1010487750172615, 0.17171232402324677, 0.15403486788272858, 0.023957185447216034, 0.05065316706895828, -0.13378533720970154, 0.10496217757463455, 0.021734783425927162, 0.13688519597053528, -0.070704385638237, 0.1373715102672577, 0.11448068916797638, -0.10866513848304749, -0.14636242389678955, -0.10251349955797195, 0.12116719782352448, -0.04916706308722496, -0.03804859519004822, 0.07784271985292435, -0.014023234136402607, -0.07504284381866455, 0.08249974995851517, -0.14459553360939026, 0.08182719349861145, -0.04170428216457367, -0.15172100067138672, -0.10227198898792267, 0.019439568743109703, -0.1654495745897293, 0.005738760344684124, -0.03261426091194153, -0.0077631208114326, 0.14942413568496704, -0.10993171483278275, -0.13259515166282654, 0.11182834953069687, 0.08889268338680267, -0.08685556799173355, -0.07307349145412445, -0.1437993049621582, 0.17098435759544373, 0.01305406168103218, -0.023012539371848106, -0.021113302558660507, -0.12812036275863647, -0.1042763739824295, -0.010419471189379692, -0.12823386490345, 0.025486038997769356, -0.17533248662948608, 0.16145290434360504, -0.021094713360071182, -0.07900295406579971, 0.12084826827049255, 0.07583589106798172, -0.08032833784818649, -0.1479826122522354, -0.0009135595755651593, -0.053570106625556946, -0.06718497723340988, 0.062202002853155136, -0.07187299430370331, -0.0408143475651741, 0.12069680541753769, -0.08659927546977997, 0.14510782063007355, 0.18004658818244934, 0.09867487102746964, -0.051854804158210754, -0.12385310232639313, -0.10145607590675354, -0.13720284402370453, -0.14011387526988983, 0.06661232560873032, -0.11472610384225845, -0.04883624240756035, -0.06795153766870499, -0.10042408853769302, -0.08337201178073883, 0.13199031352996826, 0.1354411393404007, -0.05095493420958519, -0.02873062528669834, 0.08010556548833847, 0.06421364098787308, -0.18063494563102722, -0.12139494717121124, 0.12871244549751282, 0.12963680922985077, 0.17681223154067993, -0.0703621432185173, 0.061903826892375946, -0.034154012799263, -0.021862678229808807, -0.014725728891789913, 0.07430947571992874, -0.06627634167671204, 0.038343243300914764, 0.06480977684259415, -0.03475755453109741, -0.12654708325862885, -0.02579890377819538, -0.01567004807293415, 0.020907379686832428, -0.07016341388225555, -0.06167440116405487, -0.061379995197057724, 0.07983067631721497, 0.0051627736538648605, -0.053448375314474106, 0.13811132311820984, 0.11912404000759125, 0.03390028700232506, -0.07810450345277786, -0.023548906669020653, -0.09209597110748291, 0.10756659507751465, -0.07835780829191208, -0.16969099640846252, -0.03975602984428406, 0.013310547918081284, 0.0832667127251625, 0.007505033630877733, 0.04388166218996048, -0.1819630116224289, -0.197740375995636, -0.0245891734957695, 0.026483815163373947, 0.07403252273797989, -0.05984856188297272, 0.06528162211179733, -0.014113157987594604, 0.06923682242631912, 0.16078394651412964, 0.1392817497253418, -0.16031330823898315, -0.013168537057936192, -0.00039236812153831124, 0.11540892720222473, -0.07406969368457794, 0.0034588256385177374, 0.06315181404352188, 0.06433612108230591, -0.0665489211678505, 0.051133811473846436, -0.01166197657585144, 0.0790480226278305, 0.16766497492790222, 0.038890209048986435, -0.06515315175056458, -0.08129601925611496, -0.1285317987203598, 0.04371080920100212, -0.08040804415941238, 0.10131578147411346, 0.006961465813219547, -0.1293369084596634, 0.10612349957227707, -0.022730231285095215, -0.11185788363218307, -0.0758090689778328, -0.040074095129966736, -0.1841292530298233, -0.11455083638429642, 0.035624999552965164, -0.0024326657876372337, 0.04548558592796326, 0.0013749991776421666, -0.10999124497175217, 0.05609068647027016, -0.10281515121459961, 0.00021125341299921274, -0.11210577189922333, 0.02851550467312336, -0.03979818895459175, -0.07773400843143463, -0.003283289261162281, -0.12157528847455978, 0.007043230812996626, 0.06587028503417969, 0.025787893682718277, -0.055638112127780914, -0.08984190225601196, 0.10445468872785568, 0.061765529215335846, 0.027981309220194817, -0.13016411662101746, -0.06675984710454941, -0.011894561350345612, -0.05089036002755165, 0.05487825348973274, -0.0015748459845781326, -0.14495721459388733, 0.08005310595035553, 0.09466870129108429, -0.12063254415988922, 0.009484412148594856, -0.04038158804178238, 0.08341159671545029, 0.13094446063041687, 0.05892061069607735, -0.03252032399177551, 0.016716351732611656, 0.09260476380586624, 0.006462360266596079, 0.023598527535796165, -0.02995653823018074, 0.05545349046587944, 0.01819581352174282, -0.08875884860754013, -0.033094871789216995, 0.02599376067519188, 0.05267463997006416, 0.09787745773792267, 0.1112113669514656, 0.05463673919439316, -0.025064270943403244, 0.04017229750752449, 0.12929412722587585, -0.12635597586631775, -0.04383198544383049, -0.01766323298215866, 0.057274576276540756, -0.15837723016738892, -0.14043597877025604, -0.015341561287641525, 0.0038073768373578787, -0.058881476521492004, 0.12078272551298141, 0.1482536345720291, 0.15084165334701538, 0.16032759845256805, -0.0660284236073494, 0.04200167953968048, -0.02751023694872856, -0.0037762022111564875, -0.031427036970853806, 0.013621542602777481, 0.034226372838020325, -0.16764405369758606, -0.00962567888200283, -0.07779881358146667, 0.1225559264421463, -0.09041555225849152, -0.004632166586816311, 0.051163893193006516, -0.06182568520307541, 0.16718585789203644, 0.08765072375535965, 0.16173155605793, 0.1457866132259369, -0.1413251757621765, 0.0780956894159317, 0.0757877305150032, -0.13412341475486755, -0.03892407938838005, -0.17504175007343292, -0.050447214394807816, -0.02696700394153595, -0.12165750563144684, 0.08606291562318802, -0.06688828021287918, -0.0929187461733818, 0.028083661571145058, -0.08067332953214645, -0.017489606514573097, 0.04991453140974045, 0.024890538305044174, 0.012225378304719925, -0.02844330109655857, -0.22839520871639252, -0.039836738258600235, -0.015883387997746468, -0.0679667741060257, -0.06810736656188965, -0.010622241534292698, -0.04198083281517029, 0.004622116219252348, 0.03850279003381729, -0.08934265375137329, 0.05006762966513634, 0.026095209643244743, -0.0007476534228771925, 0.038985490798950195, 0.0014722875785082579, -0.1151958778500557, 0.05217798054218292, -0.10213146358728409, -0.06839373707771301, 0.04281151294708252, -0.07251927256584167, 0.06436945497989655, -0.04993822053074837, 0.08044702559709549, 0.07215507328510284, 0.032273609191179276, -0.15557251870632172, -0.003366005839779973, -0.024368831887841225, -0.05583839863538742, -0.06890015304088593, 0.013298701494932175, -0.06422019004821777, -0.08584284037351608, -0.07303435355424881, 0.004548283293843269, -0.14377887547016144, -0.05462092161178589, 0.045284099876880646, 0.05674631521105766, 0.12055572122335434, -0.0854383334517479, 0.13611066341400146, 0.05224711075425148, 0.06452231854200363, 0.09302283823490143, -0.11180468648672104, -0.04977463185787201, -0.21117448806762695, -0.08246853947639465, 0.010985870845615864, -0.014016872271895409, -0.12327346950769424, -0.03514318913221359, -0.07788407802581787, 0.07707415521144867, 0.08536826819181442, 0.0716196596622467, -0.18903541564941406, -0.08336451649665833, 0.019560273736715317, 0.0770621970295906, 0.0445781946182251, 0.039632029831409454, 0.03442492336034775, -0.10105805099010468, -0.04953572526574135, -0.0322222001850605, -0.006571340374648571, -0.0750420093536377, -0.07177414745092392, 0.07082942873239517, -0.06095224991440773, 0.015869103372097015, -0.18126393854618073, 0.08133431524038315, -0.06801837682723999, 0.11768317222595215, 0.07222078740596771, -0.07184705138206482, 0.050536587834358215, -0.07028919458389282, -0.11018337309360504, 0.05348140746355057, 0.12688514590263367, -0.02871314249932766, 0.09611862897872925, -0.10053478181362152, 0.12140167504549026, -0.04284712299704552, 0.040914516896009445, -0.044241052120923996, 0.022867953404784203, -0.08753034472465515, 0.007009766064584255, 0.024033023044466972, -0.035597704350948334, -0.10432558506727219, 0.08186158537864685, -0.07706564664840698, 0.0011153841624036431, -0.14247311651706696, -0.13821358978748322, 0.030744925141334534, -0.003232196904718876, 0.10235238075256348, -0.07711482793092728, -0.038763612508773804, 0.05636594071984291, -0.04034784808754921, -0.07108691334724426, 0.05539954453706741, 0.11739184707403183, -0.04832460358738899, 0.05228547006845474, 0.091526098549366, 0.01311503816395998, -0.0038603609427809715, -0.032874781638383865, 0.054644789546728134, -0.06969035416841507, 0.03402583673596382, 0.012280827388167381, 0.05587860196828842, 0.07781408727169037, 0.08136563748121262, 0.04832405969500542, 0.11715475469827652, 0.13376308977603912, 0.15334931015968323, 0.10548408329486847, -0.07978091388940811, -0.09867910295724869, 0.001675138366408646, 0.06528256833553314, 0.10959611088037491, 0.0014640807639807463, -0.05491928383708, -0.10096397250890732, -0.08257905393838882, -0.08200915157794952, -0.06721139699220657, 0.06292513757944107, 0.034147147089242935, 0.02192705124616623, 0.005453811958432198, -0.06788908690214157, 0.011288275010883808, 0.01262236200273037, 0.0922735407948494, 0.051525142043828964, 0.02873254381120205, 0.06745880842208862, 0.05321319401264191, 0.005634380504488945, -0.0562518909573555, -0.13295449316501617, 0.005966763012111187, 0.11130832880735397, 0.05071493983268738, -0.04215673357248306, 0.031916916370391846, 0.08143551647663116, 0.028424356132745743, 0.088651143014431, -0.01084823813289404, -0.054565880447626114, 0.07807649672031403, 0.044158317148685455, 0.04424582049250603, -0.01796053908765316, 0.02860662341117859, -0.012837710790336132, 0.037709809839725494, -0.15099821984767914, -0.1324959397315979, 0.07033029943704605, 0.04501178115606308, 0.1576734185218811, 0.0660523772239685, -0.09068074077367783, 0.07598867267370224, 0.06884945183992386, 0.09332648664712906, 0.07306009531021118, -0.03151837736368179, -0.05681275203824043, -0.09513921290636063, -0.08586367219686508, -0.04380341246724129, 0.059189572930336, 0.13681204617023468, -0.04153134673833847, 0.06987299770116806, 0.008091792464256287, 0.17770105600357056, 0.08151944726705551, 0.06221780180931091, -0.032938629388809204, -0.04600847139954567, -0.0890415608882904, 0.09848218411207199, 0.1385032832622528, -0.07244618982076645, 0.07009506970643997, -0.10970541089773178, -0.03492535650730133, 0.0744217112660408, 0.0452861525118351, 0.09731219708919525, -0.024930115789175034, -0.06990272551774979, 0.031036676838994026, -0.03313213959336281, -0.1303081512451172, 0.047484125941991806, -0.10042454302310944, 0.05135086923837662, 0.00012284115655347705, 0.07352536916732788, 0.04258955642580986, -0.00785417202860117, -0.01726142130792141, 0.0883103758096695, 0.02720155380666256, 0.05213054642081261, 0.052961308509111404, -0.06740681082010269, -0.09673774242401123, -0.1303497552871704, -0.06706925481557846, -0.056811291724443436, -0.08210285753011703, -0.16963717341423035, -0.010227561928331852, 0.0031870759557932615, -0.10025272518396378, -0.005587189458310604, -0.12012254446744919, 0.07142248004674911, 0.16904808580875397, -0.08746160566806793, -0.005396058317273855, 0.05907374620437622, 0.09559908509254456, -0.07887400686740875, 0.035308197140693665, -0.036764271557331085, 0.05434570834040642, -0.01314088050276041, 0.12762664258480072, -0.02605777606368065, 0.10450001060962677, -0.042866334319114685, -0.12650510668754578, 0.07515532523393631, -0.009328401647508144, 0.10717026144266129, 0.14182797074317932, -0.12248456478118896, -0.07114992290735245, -0.1501026302576065, -0.016639752313494682, 0.07011298090219498, 0.03073989599943161, -0.09422855079174042, 